{"learner":{"attributes":{"scikit_learn":"{\"_estimator_type\": \"classifier\"}"},"feature_names":["Air_temperature_K","Process_temperature_K","Rotational_speed_rpm","Torque_Nm","Tool_wear_min","Type_H","Type_L","Type_M"],"feature_types":["float","float","float","float","float","i","i","i"],"gradient_booster":{"model":{"cats":{"enc":[],"feature_segments":[],"sorted_idx":[]},"gbtree_model_param":{"num_parallel_tree":"1","num_trees":"100"},"iteration_indptr":[0,1,2,3,4,5,6,7,8,9,10,11,12,13,14,15,16,17,18,19,20,21,22,23,24,25,26,27,28,29,30,31,32,33,34,35,36,37,38,39,40,41,42,43,44,45,46,47,48,49,50,51,52,53,54,55,56,57,58,59,60,61,62,63,64,65,66,67,68,69,70,71,72,73,74,75,76,77,78,79,80,81,82,83,84,85,86,87,88,89,90,91,92,93,94,95,96,97,98,99,100],"tree_info":[0,0,0,0,0,0,0,0,0,0,0,0,0,0,0,0,0,0,0,0,0,0,0,0,0,0,0,0,0,0,0,0,0,0,0,0,0,0,0,0,0,0,0,0,0,0,0,0,0,0,0,0,0,0,0,0,0,0,0,0,0,0,0,0,0,0,0,0,0,0,0,0,0,0,0,0,0,0,0,0,0,0,0,0,0,0,0,0,0,0,0,0,0,0,0,0,0,0,0,0],"trees":[{"base_weights":[3.133272E-8,1.3544015E0,-8.3215356E-1,8.2050914E-1,1.7961259E0,-1.3052788E0,1.1415639E0,-1.5797642E-1,1.7491639E0,1.860671E0,1.0477705E0,1.7954352E0,-1.6245536E0,8.2702804E-1,1.6732057E0,-5.9624416E-1,1.5880144E0,1.4192573E0,5.793722E-1,5.944993E-1,1.7861258E0,-5.538462E-1,1.7230455E0,5.83084E-1,6.5230006E-1,-1.8931367E0,1.6478379E0,-5.294118E-1,9.012225E-1,2.8102595E-1,1.7798487E0,-5.2727276E-1,1.7503613E0,-5.1111114E-1,1.5831635E0,1.0733459E0,1.8444734E0,-3.6E-1,1.8290939E0,1.2781848E0,-4.8571432E-1,-1.6414706E0,-1.9544883E0,9.051176E-1,5.539882E-1,-3.8346523E-1,9.883986E-1,4.926024E-1,-5E-1,1.6318911E0,5.7946634E-1,-3.3333337E-1,5.339546E-1,2.3873092E-1,5.9244627E-1,4.708499E-1,-5.04E-1,5.1151717E-1,5.9567356E-1,3.761212E-1,5.729E-1,-3.3333337E-1,4.568032E-1,-5.405652E-1,6.188639E-2,-5.3278375E-1,-5.994202E-1,-5.294118E-1,5.602478E-1,3.5078073E-1,-5.4146343E-1,4.8698306E-1,2.5402093E-1,-4.0000004E-1,5.152251E-1],"categories":[],"categories_nodes":[],"categories_segments":[],"categories_sizes":[],"default_left":[0,0,0,0,0,0,0,0,0,0,0,0,0,0,0,0,0,0,0,0,0,0,0,0,0,0,0,0,0,0,0,0,0,0,0,0,0,0,0,0,0,0,0,0,0,0,0,0,0,0,0,0,0,0,0,0,0,0,0,0,0,0,0,0,0,0,0,0,0,0,0,0,0,0,0],"id":0,"left_children":[1,3,5,7,9,11,13,15,17,19,21,23,25,27,29,-1,31,33,-1,-1,35,-1,37,-1,39,41,43,-1,45,47,49,-1,51,-1,53,55,57,-1,59,61,-1,63,65,67,-1,69,71,-1,-1,73,-1,-1,-1,-1,-1,-1,-1,-1,-1,-1,-1,-1,-1,-1,-1,-1,-1,-1,-1,-1,-1,-1,-1,-1,-1],"loss_changes":[4.3578164E3,3.4555566E2,2.2379756E3,6.073485E2,3.6906006E1,1.9159175E3,7.614526E1,1.0452367E3,1.785376E1,3.1281738E0,1.3247154E2,2.9369629E1,1.5434014E3,5.798436E1,2.4941223E1,0E0,9.4043365E1,6.704018E1,0E0,0E0,1.7465576E1,0E0,1.898384E1,0E0,3.3714504E1,2.1804688E1,1.8033447E1,0E0,3.238382E1,3.8204243E1,4.1638184E-1,0E0,1.5497498E1,0E0,3.5420044E1,5.423411E1,5.0893555E0,0E0,4.7027588E-2,1.2212763E1,0E0,9.633887E1,6.5444336E0,8.073699E1,0E0,4.378016E1,2.2719238E1,0E0,0E0,2.4335861E1,0E0,0E0,0E0,0E0,0E0,0E0,0E0,0E0,0E0,0E0,0E0,0E0,0E0,0E0,0E0,0E0,0E0,0E0,0E0,0E0,0E0,0E0,0E0,0E0,0E0],"parents":[2147483647,0,0,1,1,2,2,3,3,4,4,5,5,6,6,7,7,8,8,9,9,10,10,11,11,12,12,13,13,14,14,16,16,17,17,20,20,22,22,24,24,25,25,26,26,28,28,29,29,30,30,32,32,34,34,35,35,36,36,38,38,39,39,41,41,42,42,43,43,45,45,46,46,49,49],"right_children":[2,4,6,8,10,12,14,16,18,20,22,24,26,28,30,-1,32,34,-1,-1,36,-1,38,-1,40,42,44,-1,46,48,50,-1,52,-1,54,56,58,-1,60,62,-1,64,66,68,-1,70,72,-1,-1,74,-1,-1,-1,-1,-1,-1,-1,-1,-1,-1,-1,-1,-1,-1,-1,-1,-1,-1,-1,-1,-1,-1,-1,-1,-1],"split_conditions":[-8.745E-1,7.9747176E-1,1.4932846E0,2.0377412E0,1.5464729E0,-2.4263496E0,5.931814E-1,1.273335E0,2.4089127E0,4.0065783E-1,1.6866328E0,-2.626983E0,1.6866328E0,-6.1791116E-1,1.5561273E0,-5.9624416E-1,1E0,-1.4434578E0,5.793722E-1,5.944993E-1,9.974559E-1,-5.538462E-1,-2.9773313E-1,5.83084E-1,-7.524053E-1,-5.509749E-1,1.8772345E0,-5.294118E-1,1.5247059E0,-8.5218793E-1,1.1248596E0,-5.2727276E-1,4.2264307E-1,-5.1111114E-1,1.1162282E0,6.028605E-1,1.4974163E0,-3.6E-1,5.8206505E-1,-2.8202245E-1,-4.8571432E-1,-5.621309E-1,-1.0821066E0,1.0376748E0,5.539882E-1,-1.0147607E0,-1.6539115E0,4.926024E-1,-5E-1,-6.7775637E-1,5.7946634E-1,-3.3333337E-1,5.339546E-1,2.3873092E-1,5.9244627E-1,4.708499E-1,-5.04E-1,5.1151717E-1,5.9567356E-1,3.761212E-1,5.729E-1,-3.3333337E-1,4.568032E-1,-5.405652E-1,6.188639E-2,-5.3278375E-1,-5.994202E-1,-5.294118E-1,5.602478E-1,3.5078073E-1,-5.4146343E-1,4.8698306E-1,2.5402093E-1,-4.0000004E-1,5.152251E-1],"split_indices":[2,0,4,3,1,3,3,4,3,1,3,3,3,2,4,0,6,2,0,0,0,0,4,0,0,2,3,0,4,2,3,0,3,0,4,1,0,0,4,4,0,2,3,4,0,1,3,0,0,1,0,0,0,0,0,0,0,0,0,0,0,0,0,0,0,0,0,0,0,0,0,0,0,0,0],"split_type":[0,0,0,0,0,0,0,0,0,0,0,0,0,0,0,0,0,0,0,0,0,0,0,0,0,0,0,0,0,0,0,0,0,0,0,0,0,0,0,0,0,0,0,0,0,0,0,0,0,0,0,0,0,0,0,0,0,0,0,0,0,0,0,0,0,0,0,0,0,0,0,0,0,0,0],"sum_hessian":[3.8645E3,1.4705028E3,2.3939973E3,6.670849E2,8.034179E2,1.9313635E3,4.626338E2,3.2523157E2,3.4185333E2,7.382574E2,6.5160515E1,1.7987178E2,1.7514917E3,2.9227216E2,1.7036163E2,1.5875E2,1.6648155E2,1.2470111E2,2.1715222E2,2.716928E2,4.6656458E2,1.2E1,5.316052E1,1.5861163E2,2.1260147E1,1.6190304E3,1.3246126E2,7.5E0,2.8477216E2,1.2380074E1,1.5798155E2,7.25E0,1.5923155E2,5.75E0,1.1895111E2,3.6770294E1,4.2979428E2,1.5E0,5.166052E1,1.7010147E1,4.25E0,3.227703E2,1.2962601E3,2.9140223E1,1.0332104E2,1.7880074E1,2.6689206E2,7.380074E0,5E0,8.593082E1,7.205074E1,1.25E0,1.5798155E2,4.0520294E1,7.843082E1,3.1520296E1,5.25E0,2.2277214E2,2.0702214E2,8.380074E0,4.3280445E1,1.25E0,1.5760148E1,2.9701016E2,2.5760147E1,2.6251016E2,1.03375E3,7.5E0,2.1640223E1,8.630074E0,9.25E0,4.6780445E1,2.2011163E2,2E0,8.393082E1],"tree_param":{"num_deleted":"0","num_feature":"8","num_nodes":"75","size_leaf_vector":"1"}},{"base_weights":[-3.7153217E-4,1.0368613E0,-6.3487715E-1,6.26259E-1,1.377042E0,-1.0096433E0,8.1343913E-1,-3.2373756E-1,1.1910748E0,1.4363654E0,8.409137E-1,1.3777641E0,-1.2578355E0,5.3795755E-1,1.2503835E0,-4.7309127E-1,1.283145E0,6.033212E-1,1.3783172E0,1.503805E0,1.3242875E0,-4.715813E-1,1.3379545E0,4.4996986E-1,4.6629924E-1,-1.4545336E0,1.3251395E0,6.737365E-1,-8.820309E-1,4.2438915E-1,1.3567618E0,-3.7107262E-1,1.3852738E0,-4.7416258E-1,1.488694E0,1.1292048E0,4.4633275E-1,1.4037851E0,4.681829E-1,5.640932E-1,4.5630646E-1,-3.0904087E-1,4.19915E-1,9.5197374E-1,-3.878335E-1,-1.2432767E0,-1.5075223E0,1.0525606E0,4.6458635E-1,2.8049183E-1,1.0240273E0,-5.714091E-1,5.213395E-1,1.1885387E0,-4.1655883E-1,1.2081194E0,4.581363E-1,4.3202606E-1,-4.1637775E-1,-2.7831957E-1,4.6587583E-1,-3.7890115E-1,3.7284976E-1,4.541077E-1,3.125173E-1,-6.5432984E-1,3.5833776E-1,3.6420453E-1,-4.199296E-1,-4.1164726E-1,4.406059E-2,-4.0403625E-1,-4.6425518E-1,-5.1980335E-1,4.042513E-1,2.8171235E-1,-1.9001096E-1,-5.01455E-1,3.2732543E-1,4.319192E-1,-4.3588483E-1,4.290577E-1,-2.9287198E-1,3.9745998E-1,-5.045231E-1],"categories":[],"categories_nodes":[],"categories_segments":[],"categories_sizes":[],"default_left":[0,0,0,0,0,0,0,0,0,0,0,0,0,0,0,0,0,0,0,0,0,0,0,0,0,0,0,0,0,0,0,0,0,0,0,0,0,0,0,0,0,0,0,0,0,0,0,0,0,0,0,0,0,0,0,0,0,0,0,0,0,0,0,0,0,0,0,0,0,0,0,0,0,0,0,0,0,0,0,0,0,0,0,0,0],"id":1,"left_children":[1,3,5,7,9,11,13,15,17,19,21,23,25,27,29,-1,31,33,35,37,39,-1,41,-1,43,45,47,49,51,53,55,-1,57,-1,59,61,-1,63,-1,65,-1,-1,-1,67,-1,69,71,73,-1,75,77,-1,79,81,-1,83,-1,-1,-1,-1,-1,-1,-1,-1,-1,-1,-1,-1,-1,-1,-1,-1,-1,-1,-1,-1,-1,-1,-1,-1,-1,-1,-1,-1,-1],"loss_changes":[2.36119E3,1.893407E2,1.2090549E3,3.3243283E2,2.2451294E1,1.0498468E3,5.4474792E1,4.682666E2,4.1902344E1,3.0604248E0,9.387685E1,1.7896912E1,8.1626196E2,5.5109085E1,1.4924286E1,0E0,2.7965134E1,1.871884E2,6.3287354E0,1.381836E-1,3.7946075E1,0E0,1.0801376E1,0E0,1.9334599E1,1.4803467E1,5.310974E0,3.533999E1,3.702983E1,3.1548248E1,2.1008606E0,0E0,1.6971283E1,0E0,1.20768585E1,2.7068787E1,0E0,4.7273254E0,0E0,9.766382E1,0E0,0E0,0E0,1.2287582E1,0E0,5.475049E1,5.5429688E0,4.706864E1,0E0,7.475438E1,2.6481049E1,0E0,2.270717E1,9.620323E0,0E0,3.191829E1,0E0,0E0,0E0,0E0,0E0,0E0,0E0,0E0,0E0,0E0,0E0,0E0,0E0,0E0,0E0,0E0,0E0,0E0,0E0,0E0,0E0,0E0,0E0,0E0,0E0,0E0,0E0,0E0,0E0],"parents":[2147483647,0,0,1,1,2,2,3,3,4,4,5,5,6,6,7,7,8,8,9,9,10,10,11,11,12,12,13,13,14,14,16,16,17,17,18,18,19,19,20,20,22,22,24,24,25,25,26,26,27,27,28,28,29,29,30,30,32,32,34,34,35,35,37,37,39,39,43,43,45,45,46,46,47,47,49,49,50,50,52,52,53,53,55,55],"right_children":[2,4,6,8,10,12,14,16,18,20,22,24,26,28,30,-1,32,34,36,38,40,-1,42,-1,44,46,48,50,52,54,56,-1,58,-1,60,62,-1,64,-1,66,-1,-1,-1,68,-1,70,72,74,-1,76,78,-1,80,82,-1,84,-1,-1,-1,-1,-1,-1,-1,-1,-1,-1,-1,-1,-1,-1,-1,-1,-1,-1,-1,-1,-1,-1,-1,-1,-1,-1,-1,-1,-1],"split_conditions":[-8.745E-1,7.9747176E-1,1.4775739E0,1.6866328E0,1.479072E0,-2.4263496E0,5.3299135E-1,1.4461524E0,2.0979311E0,6.702614E-1,1.6866328E0,-2.626983E0,1.7668861E0,1.4175645E-1,1.5561273E0,-4.7309127E-1,1E0,1.2576243E0,2.4089127E0,1.0474519E0,1.2974321E0,-4.715813E-1,-1.2560847E0,4.4996986E-1,-7.524053E-1,-5.509749E-1,2.158121E0,1.666102E0,4.2264307E-1,-7.6293963E-1,1.7603661E0,-3.7107262E-1,2.975114E-1,-4.7416258E-1,1E0,-1.4434578E0,4.4633275E-1,4.0065783E-1,4.681829E-1,1.3957145E0,4.5630646E-1,-3.0904087E-1,4.19915E-1,6.606184E-1,-3.878335E-1,-5.621309E-1,-1.0821066E0,-6.2072903E-2,4.6458635E-1,9.049721E-2,-1.3523577E0,-5.714091E-1,4.4270638E-1,-7.0240927E-1,-4.1655883E-1,-4.282585E-1,4.581363E-1,4.3202606E-1,-4.1637775E-1,-2.7831957E-1,4.6587583E-1,-3.7890115E-1,3.7284976E-1,4.541077E-1,3.125173E-1,-6.5432984E-1,3.5833776E-1,3.6420453E-1,-4.199296E-1,-4.1164726E-1,4.406059E-2,-4.0403625E-1,-4.6425518E-1,-5.1980335E-1,4.042513E-1,2.8171235E-1,-1.9001096E-1,-5.01455E-1,3.2732543E-1,4.319192E-1,-4.3588483E-1,4.290577E-1,-2.9287198E-1,3.9745998E-1,-5.045231E-1],"split_indices":[2,0,4,3,1,3,3,4,3,1,3,3,3,3,4,0,6,4,3,0,0,0,4,0,0,2,3,4,3,2,4,0,0,0,6,2,0,1,0,3,0,0,0,4,0,2,3,4,0,2,0,0,3,0,0,2,0,0,0,0,0,0,0,0,0,0,0,0,0,0,0,0,0,0,0,0,0,0,0,0,0,0,0,0,0],"split_type":[0,0,0,0,0,0,0,0,0,0,0,0,0,0,0,0,0,0,0,0,0,0,0,0,0,0,0,0,0,0,0,0,0,0,0,0,0,0,0,0,0,0,0,0,0,0,0,0,0,0,0,0,0,0,0,0,0,0,0,0,0,0,0,0,0,0,0,0,0,0,0,0,0,0,0,0,0,0,0,0,0,0,0,0,0],"sum_hessian":[3.5857256E3,1.3607157E3,2.22501E3,6.178294E2,7.428863E2,1.7678612E3,4.571488E2,2.3052419E2,3.873052E2,6.673627E2,7.552362E1,1.6604941E2,1.6018118E3,2.8174646E2,1.7540233E2,1.2952454E2,1.0099964E2,9.459468E1,2.9271054E2,4.0890048E2,2.584622E2,1.253085E1,6.2992767E1,1.4585886E2,2.0190538E1,1.4888688E3,1.1294308E2,2.576368E2,2.4109642E1,2.0581638E1,1.548207E2,3.5009775E0,9.7498665E1,2.7060932E1,6.7533745E1,9.280826E1,1.9990228E2,1.5742435E2,2.5147612E2,5.3932037E1,2.0453017E2,1.2026216E0,6.1790146E1,1.6181665E1,4.008873E0,3.0346582E2,1.1854028E3,5.3454636E1,5.9488438E1,1.2222495E2,1.3541187E2,1.3739872E1,1.036977E1,1.4721076E1,5.860563E0,8.7001465E1,6.781922E1,9.608032E1,1.4183424E0,1.400391E0,6.6133354E1,3.749732E0,8.9058525E1,1.1832489E2,3.9099464E1,9.612095E0,4.431994E1,1.4994672E1,1.1869935E0,2.7773035E2,2.5735498E1,2.4309691E2,9.4230597E2,4.6517944E0,4.880284E1,7.1019295E1,5.1205658E1,2.7061107E0,1.3270575E2,7.26229E0,3.10748E0,1.3548047E1,1.1730288E0,8.414371E1,2.857761E0],"tree_param":{"num_deleted":"0","num_feature":"8","num_nodes":"85","size_leaf_vector":"1"}},{"base_weights":[-1.6759803E-3,8.7837356E-1,-5.332283E-1,5.267412E-1,1.1703557E0,-8.5431355E-1,6.5923834E-1,-2.810683E-1,1.0026644E0,1.2271856E0,7.1349794E-1,1.1688869E0,-1.063263E0,4.4160053E-1,1.0471243E0,-4.0831313E-1,1.0684167E0,6.529619E-1,1.2354984E0,1.1605113E0,3.998389E-1,-4.3300733E-1,1.1408068E0,1.2884355E0,3.4335116E-1,-1.2408255E0,1.0643256E0,5.466139E-1,-6.8931746E-1,2.3546165E-2,1.1309289E0,-3.188171E-1,1.1584096E0,-1.0645955E0,3.9410725E-1,3.7699756E-1,5.398547E-1,1.2750745E0,4.4453335E-1,8.3105195E-1,4.0333512E-1,3.9312646E-1,2.2277497E-1,-3.7560505E-1,7.0218533E-1,-1.304139E0,-1.0293466E0,5.594919E-1,1.2001643E0,4.4969946E-1,4.5852354E-1,-4.5746663E-1,4.0619326E-1,3.2181957E-1,-3.635887E-1,1.009732E0,4.0101805E-1,3.6341202E-1,-3.4030896E-1,-4.775099E-1,9.330886E-2,3.4524935E-1,-4.9461797E-1,3.5535508E-1,4.0223718E-1,-2.793133E-1,3.7978438E-1,-5.954597E-1,3.9366654E-1,2.9229665E-1,-2.7707243E-1,-3.3566618E-1,-4.063609E-1,3.856992E-1,-3.3494726E-1,-3.8050723E-1,3.7430596E-1,2.8645486E-1,4.003313E-1,2.7292043E-2,2.2346848E-1,3.8973808E-1,-3.6446783E-1,2.0040604E-1,3.912649E-1],"categories":[],"categories_nodes":[],"categories_segments":[],"categories_sizes":[],"default_left":[0,0,0,0,0,0,0,0,0,0,0,0,0,0,0,0,0,0,0,0,0,0,0,0,0,0,0,0,0,0,0,0,0,0,0,0,0,0,0,0,0,0,0,0,0,0,0,0,0,0,0,0,0,0,0,0,0,0,0,0,0,0,0,0,0,0,0,0,0,0,0,0,0,0,0,0,0,0,0,0,0,0,0,0,0],"id":2,"left_children":[1,3,5,7,9,11,13,15,17,19,21,23,25,27,29,-1,31,33,35,37,-1,-1,39,41,43,45,47,49,51,53,55,-1,57,59,-1,-1,61,63,65,67,-1,-1,-1,-1,69,71,73,75,77,79,-1,-1,81,-1,-1,83,-1,-1,-1,-1,-1,-1,-1,-1,-1,-1,-1,-1,-1,-1,-1,-1,-1,-1,-1,-1,-1,-1,-1,-1,-1,-1,-1,-1,-1],"loss_changes":[1.4411732E3,1.1849188E2,7.3596387E2,2.0331706E2,1.5558899E1,6.4114233E2,3.3982086E1,2.879371E2,2.6269653E1,2.4076538E0,6.8389984E1,1.3588547E1,5.19824E2,3.1622765E1,1.2490616E1,0E0,1.8097244E1,1.5464099E2,2.2435913E0,2.8304382E1,0E0,0E0,2.7306519E0,5.1290894E-1,1.195481E1,1.5625244E1,6.615402E0,2.2272606E1,2.1487211E1,1.6938845E1,2.0138855E0,0E0,1.1678703E1,2.8097538E1,0E0,0E0,1.2077356E1,2.1432495E-1,5.777274E1,3.89378E1,0E0,0E0,0E0,0E0,8.171268E0,7.5546875E0,6.1296417E1,3.227959E1,1.4550629E0,2.3339031E1,0E0,0E0,1.6999914E1,0E0,0E0,8.080887E0,0E0,0E0,0E0,0E0,0E0,0E0,0E0,0E0,0E0,0E0,0E0,0E0,0E0,0E0,0E0,0E0,0E0,0E0,0E0,0E0,0E0,0E0,0E0,0E0,0E0,0E0,0E0,0E0,0E0],"parents":[2147483647,0,0,1,1,2,2,3,3,4,4,5,5,6,6,7,7,8,8,9,9,10,10,11,11,12,12,13,13,14,14,16,16,17,17,18,18,19,19,22,22,23,23,24,24,25,25,26,26,27,27,28,28,29,29,30,30,32,32,33,33,36,36,37,37,38,38,39,39,44,44,45,45,46,46,47,47,48,48,49,49,52,52,55,55],"right_children":[2,4,6,8,10,12,14,16,18,20,22,24,26,28,30,-1,32,34,36,38,-1,-1,40,42,44,46,48,50,52,54,56,-1,58,60,-1,-1,62,64,66,68,-1,-1,-1,-1,70,72,74,76,78,80,-1,-1,82,-1,-1,84,-1,-1,-1,-1,-1,-1,-1,-1,-1,-1,-1,-1,-1,-1,-1,-1,-1,-1,-1,-1,-1,-1,-1,-1,-1,-1,-1,-1,-1],"split_conditions":[-8.745E-1,7.9747176E-1,1.4932846E0,1.6866328E0,1.4116712E0,-2.4263496E0,5.3299135E-1,1.4461524E0,2.2584376E0,1.2974321E0,1.6866328E0,-2.626983E0,1.6866328E0,1.4175645E-1,1.5561273E0,-4.0831313E-1,1E0,1.2419137E0,1.0072658E0,6.702614E-1,3.998389E-1,-4.3300733E-1,2.4089127E0,1E0,1E0,4.8283306E-1,1.8772345E0,4.0341563E0,7.9747176E-1,-8.5218793E-1,1.8232088E0,-3.188171E-1,2.975114E-1,3.9750347E-1,3.9410725E-1,3.7699756E-1,-1.6219544E0,1.0474519E0,1.1319388E0,1.2576243E0,4.0333512E-1,3.9312646E-1,2.2277497E-1,-3.7560505E-1,-7.524053E-1,-1.0821066E0,4.9286473E-1,1.0376748E0,2.158121E0,1.666102E0,4.5852354E-1,-4.5746663E-1,8.974638E-1,3.2181957E-1,-3.635887E-1,1.2051129E0,4.0101805E-1,3.6341202E-1,-3.4030896E-1,-4.775099E-1,9.330886E-2,3.4524935E-1,-4.9461797E-1,3.5535508E-1,4.0223718E-1,-2.793133E-1,3.7978438E-1,-5.954597E-1,3.9366654E-1,2.9229665E-1,-2.7707243E-1,-3.3566618E-1,-4.063609E-1,3.856992E-1,-3.3494726E-1,-3.8050723E-1,3.7430596E-1,2.8645486E-1,4.003313E-1,2.7292043E-2,2.2346848E-1,3.8973808E-1,-3.6446783E-1,2.0040604E-1,3.912649E-1],"split_indices":[2,0,4,3,1,3,3,4,3,0,3,3,3,3,4,0,6,4,1,1,0,0,3,5,6,3,3,2,0,2,4,0,0,0,0,0,2,0,4,4,0,0,0,0,0,3,3,4,3,4,0,0,0,0,0,3,0,0,0,0,0,0,0,0,0,0,0,0,0,0,0,0,0,0,0,0,0,0,0,0,0,0,0,0,0],"split_type":[0,0,0,0,0,0,0,0,0,0,0,0,0,0,0,0,0,0,0,0,0,0,0,0,0,0,0,0,0,0,0,0,0,0,0,0,0,0,0,0,0,0,0,0,0,0,0,0,0,0,0,0,0,0,0,0,0,0,0,0,0,0,0,0,0,0,0,0,0,0,0,0,0,0,0,0,0,0,0,0,0,0,0,0,0],"sum_hessian":[3.0787954E3,1.1591045E3,1.9196909E3,5.271114E2,6.319931E2,1.5126707E3,4.0702023E2,1.9556984E2,3.3154153E2,5.605753E2,7.141779E1,1.4116968E2,1.371501E3,2.6209857E2,1.4492168E2,1.0862783E2,8.694202E1,1.3403441E2,1.9750713E2,3.5098132E2,2.0959398E2,1.1416226E1,6.0001564E1,1.2282262E2,1.8347061E1,1.266241E3,1.0526009E2,2.403016E2,2.1796951E1,1.106434E1,1.3385733E2,3.0846555E0,8.385736E1,3.7067253E1,9.696715E1,1.9089407E2,6.613049E0,3.0189447E2,4.9086834E1,2.581548E1,3.4186085E1,1.167206E2,6.10202E0,2.911864E0,1.5435198E1,9.705171E2,2.9572388E2,2.340312E1,8.185698E1,2.200393E2,2.0262297E1,1.2143148E1,9.653803E0,6.0545793E0,5.009761E0,8.796194E1,4.58954E1,8.242497E1,1.432387E0,2.6685125E1,1.0382128E1,5.5404987E0,1.0725504E0,1.3495276E2,1.6694173E2,1.8302755E1,3.0784079E1,3.3113875E0,2.2504091E1,1.3565208E1,1.8699892E0,2.1252266E2,7.579944E2,1.0229192E1,2.854947E2,6.170695E0,1.7232426E1,3.1824825E1,5.003215E1,9.992145E1,1.2011787E2,6.353015E0,3.300788E0,4.2228973E1,4.5732964E1],"tree_param":{"num_deleted":"0","num_feature":"8","num_nodes":"85","size_leaf_vector":"1"}},{"base_weights":[-1.6181809E-3,7.7882373E-1,-4.6237886E-1,4.6275187E-1,1.0422007E0,-7.4438506E-1,5.6634E-1,-2.571157E-1,8.806132E-1,1.0934404E0,6.3026196E-1,1.037055E0,-9.2449856E-1,3.895204E-1,9.4556713E-1,-3.7149075E-1,9.25706E-1,6.198692E-1,1.1601604E0,1.2132369E0,1.0199531E0,-3.830128E-1,1.0152124E0,1.1607274E0,2.5625318E-1,-1.0781745E0,9.306723E-1,4.236184E-1,-5.9615165E-1,-2.5238815E-1,9.8470855E-1,1.075274E0,-2.2354427E-1,-3.9821458E-1,9.5710915E-1,3.593312E-1,8.3211195E-1,3.674458E-1,1.9847468E-1,4.8531777E-1,1.1004703E0,7.193537E-1,3.6386037E-1,3.5554773E-1,1.8580636E-1,-3.4925658E-1,5.7157516E-1,-7.934421E-1,-1.1572628E0,6.715576E-1,3.6356464E-1,1.2295674E0,3.1242424E-1,8.336289E-1,3.4844458E-1,-2.3848085E-1,3.4035116E-1,-5.3497106E-1,2.9207224E-1,2.047518E-1,3.5927588E-1,-3.104197E-1,3.376162E-1,-5.939863E-1,2.2789048E-1,2.8557855E-1,3.6800566E-1,-4.513474E-1,3.5550714E-1,2.7881828E-1,-3.5900706E-1,-2.835805E-1,1.2839122E-1,-3.723499E-1,-2.9173934E-1,-4.3541536E-1,2.8592846E-1,3.982566E-1,2.4685204E-1,-5.173613E-1,1.09891966E-1,-3.672757E-1,2.755441E-1],"categories":[],"categories_nodes":[],"categories_segments":[],"categories_sizes":[],"default_left":[0,0,0,0,0,0,0,0,0,0,0,0,0,0,0,0,0,0,0,0,0,0,0,0,0,0,0,0,0,0,0,0,0,0,0,0,0,0,0,0,0,0,0,0,0,0,0,0,0,0,0,0,0,0,0,0,0,0,0,0,0,0,0,0,0,0,0,0,0,0,0,0,0,0,0,0,0,0,0,0,0,0,0],"id":3,"left_children":[1,3,5,7,9,11,13,15,17,19,21,23,25,27,29,-1,31,33,35,37,39,-1,41,43,45,47,49,51,-1,-1,53,55,57,-1,59,-1,61,-1,-1,63,65,67,-1,-1,-1,-1,69,71,73,75,-1,77,79,81,-1,-1,-1,-1,-1,-1,-1,-1,-1,-1,-1,-1,-1,-1,-1,-1,-1,-1,-1,-1,-1,-1,-1,-1,-1,-1,-1,-1,-1],"loss_changes":[9.233518E2,7.886786E1,4.6880762E2,1.3109361E2,1.0268738E1,4.0768207E2,2.296276E1,1.8748758E2,1.9361893E1,2.8153076E0,4.5188576E1,1.0987419E1,3.2935712E2,2.0210316E1,8.517845E0,0E0,1.2852383E1,9.628673E1,6.2953186E-1,2.74292E-1,1.2018585E1,0E0,2.0693283E0,5.9658813E-1,8.397308E0,2.3043945E1,5.645241E0,2.0805027E1,0E0,0E0,1.9173431E0,8.112572E0,1.9057907E1,0E0,7.3652115E0,0E0,1.0380422E1,0E0,0E0,2.8525337E1,3.5689087E0,2.5192656E1,0E0,0E0,0E0,0E0,1.0474795E1,4.3889954E1,1.1671631E1,3.0297768E1,0E0,3.617096E-2,2.3583534E1,1.1915562E1,0E0,0E0,0E0,0E0,0E0,0E0,0E0,0E0,0E0,0E0,0E0,0E0,0E0,0E0,0E0,0E0,0E0,0E0,0E0,0E0,0E0,0E0,0E0,0E0,0E0,0E0,0E0,0E0,0E0],"parents":[2147483647,0,0,1,1,2,2,3,3,4,4,5,5,6,6,7,7,8,8,9,9,10,10,11,11,12,12,13,13,14,14,16,16,17,17,18,18,19,19,20,20,22,22,23,23,24,24,25,25,26,26,27,27,30,30,31,31,32,32,34,34,36,36,39,39,40,40,41,41,46,46,47,47,48,48,49,49,51,51,52,52,53,53],"right_children":[2,4,6,8,10,12,14,16,18,20,22,24,26,28,30,-1,32,34,36,38,40,-1,42,44,46,48,50,52,-1,-1,54,56,58,-1,60,-1,62,-1,-1,64,66,68,-1,-1,-1,-1,70,72,74,76,-1,78,80,82,-1,-1,-1,-1,-1,-1,-1,-1,-1,-1,-1,-1,-1,-1,-1,-1,-1,-1,-1,-1,-1,-1,-1,-1,-1,-1,-1,-1,-1],"split_conditions":[-8.745E-1,7.9747176E-1,1.5247059E0,1.6866328E0,1.4116712E0,-2.4263496E0,5.931814E-1,1.4461524E0,9.905427E-1,4.0065783E-1,1.6866328E0,-2.626983E0,1.6866328E0,1.9960263E0,1.5561273E0,-3.7149075E-1,-2.5244498E-1,2.158121E0,1E0,-9.0239006E-1,1.0474519E0,-3.830128E-1,2.4089127E0,1E0,-1.8775836E-1,-5.509749E-1,2.158121E0,-1.4191661E0,-5.9615165E-1,-2.5238815E-1,1.1248596E0,1E0,1.3455563E0,-3.9821458E-1,2.7399576E0,3.593312E-1,2.0377412E0,3.674458E-1,1.9847468E-1,-5.333933E-1,1.3474281E0,1.2576243E0,3.6386037E-1,3.5554773E-1,1.8580636E-1,-3.4925658E-1,6.606184E-1,-5.621309E-1,5.8206505E-1,-6.2072903E-2,3.6356464E-1,3.6939815E-1,-1.3523577E0,-6.7775637E-1,3.4844458E-1,-2.3848085E-1,3.4035116E-1,-5.3497106E-1,2.9207224E-1,2.047518E-1,3.5927588E-1,-3.104197E-1,3.376162E-1,-5.939863E-1,2.2789048E-1,2.8557855E-1,3.6800566E-1,-4.513474E-1,3.5550714E-1,2.7881828E-1,-3.5900706E-1,-2.835805E-1,1.2839122E-1,-3.723499E-1,-2.9173934E-1,-4.3541536E-1,2.8592846E-1,3.982566E-1,2.4685204E-1,-5.173613E-1,1.09891966E-1,-3.672757E-1,2.755441E-1],"split_indices":[2,0,4,3,1,3,3,4,4,1,3,3,3,4,4,0,0,3,7,2,0,0,3,5,4,2,3,1,0,0,3,6,3,0,3,0,3,0,0,4,0,4,0,0,0,0,4,2,4,4,0,2,0,1,0,0,0,0,0,0,0,0,0,0,0,0,0,0,0,0,0,0,0,0,0,0,0,0,0,0,0,0,0],"split_type":[0,0,0,0,0,0,0,0,0,0,0,0,0,0,0,0,0,0,0,0,0,0,0,0,0,0,0,0,0,0,0,0,0,0,0,0,0,0,0,0,0,0,0,0,0,0,0,0,0,0,0,0,0,0,0,0,0,0,0,0,0,0,0,0,0,0,0,0,0,0,0,0,0,0,0,0,0,0,0,0,0,0,0],"sum_hessian":[2.5657393E3,9.522005E2,1.6135388E3,4.340569E2,5.181436E2,1.2665983E3,3.4694052E2,1.5956027E2,2.744966E2,4.5935193E2,5.8791687E1,1.1586452E2,1.1507338E3,2.3799799E2,1.08942535E2,8.718814E1,7.237213E1,1.436895E2,1.308071E2,1.6875053E2,2.906014E2,9.485545E0,4.9306145E1,9.960185E1,1.6262663E1,1.06309E3,8.7643875E1,2.3544191E2,2.5560849E0,1.8959539E0,1.07046585E2,6.409493E1,8.277196E0,2.077824E1,1.2291126E2,1.14974304E2,1.5832799E1,1.6408519E2,4.6653485E0,3.8956593E1,2.516448E2,2.1605534E1,2.770061E1,9.4163185E1,5.438672E0,2.4652598E0,1.3797403E1,2.334954E2,8.2959454E2,4.7377247E1,4.0266632E1,2.7325502E1,2.081164E2,6.079974E1,4.624684E1,1.5862778E0,6.2508656E1,3.3816843E0,4.895512E0,5.9175873E1,6.373539E1,1.806341E0,1.4026458E1,3.2781646E0,3.567843E1,1.1952209E2,1.3212273E2,3.3545935E0,1.825094E1,1.1869868E1,1.9275354E0,2.0788109E2,2.5614317E1,5.666181E2,2.629764E2,5.0608096E0,4.2316437E1,2.0197346E1,7.128157E0,4.5642524E0,2.0355215E2,1.8758966E0,5.8923843E1],"tree_param":{"num_deleted":"0","num_feature":"8","num_nodes":"83","size_leaf_vector":"1"}},{"base_weights":[-2.5365262E-3,7.019113E-1,-4.0568265E-1,4.149369E-1,9.4100344E-1,-6.8693256E-1,4.2422563E-1,-6.049005E-1,6.570302E-1,1.0634449E0,7.9030055E-1,9.369439E-1,-8.541358E-1,7.9464966E-1,2.4809617E-1,-1.1179934E0,3.0881637E-1,3.2713518E-1,1.0692002E0,9.2216444E-1,3.453017E-1,3.0935952E-1,1.0210215E0,1.0706847E0,1.8061757E-1,-9.9895406E-1,8.2951546E-1,-4.2394522E-1,8.6347616E-1,6.545164E-2,7.854829E-1,1.6769515E-2,-1.2931843E0,-3.6202022E-1,8.5625374E-1,3.3533442E-1,6.284359E-1,1.1062509E0,4.6983942E-1,-1.0218627E0,7.3454964E-1,3.427636E-1,5.7871944E-1,3.2992885E-1,1.546715E-1,5.093892E-1,-2.8635877E-1,-7.1518487E-1,-1.0833467E0,5.706322E-1,3.3972907E-1,9.813974E-1,-2.9945169E-2,7.1831805E-1,-1.9105816E-1,-4.0778977E-1,8.8321793E-1,-3.1367925E-1,2.8226906E-1,-3.446937E-1,-6.7573446E-1,-1.7379424E-2,2.817565E-1,-2.9928043E-1,3.2490283E-1,3.4041792E-1,1.5435758E-1,-6.476826E-1,2.0371376E-1,1.1336043E-1,-5.242458E-1,-1.0762469E-1,2.7307835E-1,-2.8927818E-1,2.7701953E-1,2.2506252E-1,-2.929781E-1,-3.5863137E-1,-6.8680935E-2,-2.4020472E-1,-3.490132E-1,-1.734225E-1,2.9486915E-1,3.3487403E-1,2.0085905E-1,-5.4568493E-1,2.7548474E-1,2.6636082E-1,-8.081058E-3,-6.890508E-1,2.7627729E-2,3.0213252E-1,-3.8703617E-2],"categories":[],"categories_nodes":[],"categories_segments":[],"categories_sizes":[],"default_left":[0,0,0,0,0,0,0,0,0,0,0,0,0,0,0,0,0,0,0,0,0,0,0,0,0,0,0,0,0,0,0,0,0,0,0,0,0,0,0,0,0,0,0,0,0,0,0,0,0,0,0,0,0,0,0,0,0,0,0,0,0,0,0,0,0,0,0,0,0,0,0,0,0,0,0,0,0,0,0,0,0,0,0,0,0,0,0,0,0,0,0,0,0],"id":4,"left_children":[1,3,5,7,9,11,13,15,17,19,21,23,25,27,29,31,-1,33,35,37,-1,39,41,43,45,47,49,-1,51,53,55,57,59,-1,61,-1,63,65,67,69,71,-1,73,-1,-1,75,-1,77,79,81,-1,83,85,87,89,-1,91,-1,-1,-1,-1,-1,-1,-1,-1,-1,-1,-1,-1,-1,-1,-1,-1,-1,-1,-1,-1,-1,-1,-1,-1,-1,-1,-1,-1,-1,-1,-1,-1,-1,-1,-1,-1],"loss_changes":[6.029354E2,5.263086E1,3.1546432E2,8.7551315E1,6.9234924E0,2.7473227E2,2.2141605E1,5.8373924E1,3.8505478E1,1.7745972E0,2.1045052E1,9.381676E0,2.2398383E2,1.7917755E1,2.2867846E1,1.0441818E1,0E0,1.3101968E2,2.0083618E0,7.2030563E0,0E0,3.6888157E1,6.308029E0,7.2810364E-1,6.2434664E0,1.941809E1,5.081131E0,0E0,1.1321495E1,2.9505669E1,1.3597897E1,8.835054E0,3.6946945E0,0E0,9.127312E0,0E0,1.205868E1,5.144501E-1,1.7176239E1,1.678283E1,9.734146E0,0E0,1.6830791E1,0E0,0E0,5.2466145E0,0E0,4.5549522E1,1.3726807E1,2.0171711E1,0E0,3.2359161E0,2.4516903E1,6.3010235E0,7.575194E1,0E0,7.299431E0,0E0,0E0,0E0,0E0,0E0,0E0,0E0,0E0,0E0,0E0,0E0,0E0,0E0,0E0,0E0,0E0,0E0,0E0,0E0,0E0,0E0,0E0,0E0,0E0,0E0,0E0,0E0,0E0,0E0,0E0,0E0,0E0,0E0,0E0,0E0,0E0],"parents":[2147483647,0,0,1,1,2,2,3,3,4,4,5,5,6,6,7,7,8,8,9,9,10,10,11,11,12,12,13,13,14,14,15,15,17,17,18,18,19,19,21,21,22,22,23,23,24,24,25,25,26,26,28,28,29,29,30,30,31,31,32,32,34,34,36,36,37,37,38,38,39,39,40,40,42,42,45,45,47,47,48,48,49,49,51,51,52,52,53,53,54,54,56,56],"right_children":[2,4,6,8,10,12,14,16,18,20,22,24,26,28,30,32,-1,34,36,38,-1,40,42,44,46,48,50,-1,52,54,56,58,60,-1,62,-1,64,66,68,70,72,-1,74,-1,-1,76,-1,78,80,82,-1,84,86,88,90,-1,92,-1,-1,-1,-1,-1,-1,-1,-1,-1,-1,-1,-1,-1,-1,-1,-1,-1,-1,-1,-1,-1,-1,-1,-1,-1,-1,-1,-1,-1,-1,-1,-1,-1,-1,-1,-1],"split_conditions":[-8.745E-1,7.9747176E-1,1.4932846E0,1.2452396E0,6.702614E-1,-2.4263496E0,-4.617266E-1,1.7603661E0,1.2419137E0,1.0474519E0,1.4974163E0,-2.626983E0,1.6866328E0,-1.0023855E0,1.8389195E0,-1.4023538E0,3.0881637E-1,2.158121E0,1E0,4.0065783E-1,3.453017E-1,1.3957145E0,1.5464729E0,1E0,-7.524053E-1,-5.509749E-1,2.158121E0,-4.2394522E-1,1E0,-1.0147607E0,-1.1523736E0,-1.0147607E0,1.4461524E0,-3.6202022E-1,2.2584376E0,3.3533442E-1,2.0377412E0,-9.1354614E-1,1.0546379E0,-1.164557E0,-2.6631176E-1,3.427636E-1,1.6866328E0,3.2992885E-1,1.546715E-1,6.606184E-1,-2.8635877E-1,-6.681133E-1,-1.0821066E0,7.077505E-1,3.3972907E-1,4.0065783E-1,1.2974321E0,4.3075633E-1,-2.7335104E-1,-4.0778977E-1,1.9960263E0,-3.1367925E-1,2.8226906E-1,-3.446937E-1,-6.7573446E-1,-1.7379424E-2,2.817565E-1,-2.9928043E-1,3.2490283E-1,3.4041792E-1,1.5435758E-1,-6.476826E-1,2.0371376E-1,1.1336043E-1,-5.242458E-1,-1.0762469E-1,2.7307835E-1,-2.8927818E-1,2.7701953E-1,2.2506252E-1,-2.929781E-1,-3.5863137E-1,-6.8680935E-2,-2.4020472E-1,-3.490132E-1,-1.734225E-1,2.9486915E-1,3.3487403E-1,2.0085905E-1,-5.4568493E-1,2.7548474E-1,2.6636082E-1,-8.081058E-3,-6.890508E-1,2.7627729E-2,3.0213252E-1,-3.8703617E-2],"split_indices":[2,0,4,3,1,3,2,4,4,0,0,3,3,0,4,0,0,3,7,1,0,3,1,5,0,2,3,0,7,1,0,1,4,0,3,0,3,2,3,2,4,0,3,0,0,4,0,2,3,4,0,1,0,2,1,0,4,0,0,0,0,0,0,0,0,0,0,0,0,0,0,0,0,0,0,0,0,0,0,0,0,0,0,0,0,0,0,0,0,0,0,0,0],"split_type":[0,0,0,0,0,0,0,0,0,0,0,0,0,0,0,0,0,0,0,0,0,0,0,0,0,0,0,0,0,0,0,0,0,0,0,0,0,0,0,0,0,0,0,0,0,0,0,0,0,0,0,0,0,0,0,0,0,0,0,0,0,0,0,0,0,0,0,0,0,0,0,0,0,0,0,0,0,0,0,0,0,0,0,0,0,0,0,0,0,0,0,0,0],"sum_hessian":[2.1210437E3,7.7175555E2,1.3492881E3,3.5199866E2,4.197569E2,1.0078928E3,3.4139532E2,6.724119E1,2.8475748E2,2.282523E2,1.9150458E2,9.366037E1,9.142324E2,1.0888458E2,2.3251074E2,5.1415085E1,1.5826102E1,1.5916095E2,1.2559653E2,9.174781E1,1.365045E2,6.2844715E1,1.2865987E2,7.923385E1,1.4426519E1,8.4219794E2,7.2034485E1,2.7012844E0,1.061833E2,1.7436885E2,5.8141888E1,6.9971037E0,4.441798E1,4.049341E1,1.1866755E2,1.1174404E2,1.3852486E1,6.4181595E1,2.7566216E1,1.4873658E1,4.7971054E1,9.9687294E1,2.8972574E1,7.435767E1,4.8761754E0,1.16140175E1,2.812502E0,1.9522629E2,6.469717E2,4.039505E1,3.1639439E1,9.371548E1,1.2467824E1,4.867679E1,1.2569206E2,1.9714168E0,5.617047E1,3.1939406E0,3.8031628E0,4.0523838E1,3.894144E0,9.895138E0,1.0877241E2,2.7655072E0,1.1086978E1,6.035928E1,3.8223133E0,1.3450707E0,2.6221144E1,5.2416806E0,9.631978E0,6.4980006E0,4.1473057E1,4.9620476E0,2.4010527E1,1.0420422E1,1.1935958E0,9.7484886E1,9.774141E1,1.4518597E2,5.0178568E2,1.0562426E1,2.9832623E1,6.362515E1,3.0090328E1,4.0009804E0,8.466844E0,3.9499077E1,9.1777115E0,1.4054879E1,1.11637184E2,5.004976E1,6.120711E0],"tree_param":{"num_deleted":"0","num_feature":"8","num_nodes":"93","size_leaf_vector":"1"}},{"base_weights":[-3.564104E-3,6.3910663E-1,-3.5794434E-1,3.735683E-1,8.608266E-1,-6.240883E-1,3.337203E-1,-5.639499E-1,5.939264E-1,1.0789E0,7.610209E-1,8.5383725E-1,-7.755834E-1,1.8324333E-1,7.3714864E-1,-1.0467457E0,2.7815157E-1,2.7459148E-1,9.8157954E-1,3.290784E-1,1.184275E-1,2.7264062E-1,8.3477587E-1,9.987936E-1,1.2087424E-1,-9.099588E-1,7.3832774E-1,9.0109086E-1,4.713007E-2,5.642741E-1,1.00667E0,9.39525E-3,-1.2131143E0,-3.4265772E-1,7.3212105E-1,1.0287359E0,5.453988E-1,-4.654799E-1,5.1710176E-1,9.125068E-1,5.033845E-1,3.1030238E-1,1.2801138E-1,2.8676674E-1,-3.1334543E-1,-1.0212363E0,-5.949151E-1,4.8073688E-1,3.2276583E-1,3.5077554E-1,3.8956565E-1,1.2219636E-1,-5.7253265E-1,7.000828E-1,-4.0580523E-1,1.13593556E-1,3.186378E-1,-2.9245964E-1,2.5914118E-1,-3.2773873E-1,-5.345013E-1,4.6747267E-2,2.817851E-1,2.2444388E-1,3.2467175E-1,-2.7071685E-1,3.043402E-1,-4.267554E-1,2.1651013E-1,2.161691E-1,3.3061686E-1,-3.357386E-1,2.5147924E-1,2.8676674E-1,-4.0010822E-1,-2.0586944E-1,-3.384572E-1,2.2808117E-1,-2.4798729E-1,-3.534835E-1,2.1840174E-1,-5.899842E-1,2.9474297E-1,-4.0394005E-1,5.1788304E-2,1.15544535E-1,2.9491663E-1],"categories":[],"categories_nodes":[],"categories_segments":[],"categories_sizes":[],"default_left":[0,0,0,0,0,0,0,0,0,0,0,0,0,0,0,0,0,0,0,0,0,0,0,0,0,0,0,0,0,0,0,0,0,0,0,0,0,0,0,0,0,0,0,0,0,0,0,0,0,0,0,0,0,0,0,0,0,0,0,0,0,0,0,0,0,0,0,0,0,0,0,0,0,0,0,0,0,0,0,0,0,0,0,0,0,0,0],"id":5,"left_children":[1,3,5,7,9,11,13,15,17,19,21,23,25,27,29,31,-1,33,35,-1,-1,37,39,41,43,45,47,49,51,53,55,57,59,-1,61,63,65,-1,67,69,71,-1,-1,-1,73,75,77,79,-1,-1,81,83,-1,85,-1,-1,-1,-1,-1,-1,-1,-1,-1,-1,-1,-1,-1,-1,-1,-1,-1,-1,-1,-1,-1,-1,-1,-1,-1,-1,-1,-1,-1,-1,-1,-1,-1],"loss_changes":[3.983684E2,3.628105E1,2.077511E2,5.914323E1,6.5362854E0,1.8303052E2,1.8922699E1,4.0340553E1,2.8323074E1,8.464966E-1,8.247894E0,7.9758987E0,1.5107108E2,2.2428392E1,3.3902435E0,7.352764E0,0E0,8.3831436E1,1.5768127E0,0E0,0E0,1.5232161E1,4.7940063E0,8.4970474E-1,5.2741895E0,2.3213379E1,4.771515E0,4.5651264E0,2.8767303E1,1.5013641E1,7.095947E-1,6.458248E0,5.301819E-1,0E0,1.1480846E1,5.8153534E-1,9.2475395E0,0E0,1.2647572E1,5.1712646E0,2.3203247E1,0E0,0E0,0E0,1.3939895E1,1.7167114E1,5.707258E1,1.5751292E1,0E0,0E0,2.1613228E1,1.4166703E1,0E0,4.1767406E0,0E0,0E0,0E0,0E0,0E0,0E0,0E0,0E0,0E0,0E0,0E0,0E0,0E0,0E0,0E0,0E0,0E0,0E0,0E0,0E0,0E0,0E0,0E0,0E0,0E0,0E0,0E0,0E0,0E0,0E0,0E0,0E0,0E0],"parents":[2147483647,0,0,1,1,2,2,3,3,4,4,5,5,6,6,7,7,8,8,9,9,10,10,11,11,12,12,13,13,14,14,15,15,17,17,18,18,21,21,22,22,23,23,24,24,25,25,26,26,27,27,28,28,29,29,30,30,31,31,32,32,34,34,35,35,36,36,38,38,39,39,40,40,44,44,45,45,46,46,47,47,50,50,51,51,53,53],"right_children":[2,4,6,8,10,12,14,16,18,20,22,24,26,28,30,32,-1,34,36,-1,-1,38,40,42,44,46,48,50,52,54,56,58,60,-1,62,64,66,-1,68,70,72,-1,-1,-1,74,76,78,80,-1,-1,82,84,-1,86,-1,-1,-1,-1,-1,-1,-1,-1,-1,-1,-1,-1,-1,-1,-1,-1,-1,-1,-1,-1,-1,-1,-1,-1,-1,-1,-1,-1,-1,-1,-1,-1,-1],"split_conditions":[-8.745E-1,7.9747176E-1,1.4932846E0,1.2452396E0,4.0065783E-1,-2.4263496E0,5.931814E-1,1.7603661E0,1.179071E0,-9.0239006E-1,1.0474519E0,-2.626983E0,1.6866328E0,-1.6539115E0,1.7603661E0,-1.4023538E0,2.7815157E-1,2.158121E0,1E0,3.290784E-1,1.184275E-1,-5.333933E-1,1.4116712E0,1E0,-2.1022983E0,4.8283306E-1,2.158121E0,-1.524529E-1,1.1391647E0,-4.282585E-1,1E0,-1.0147607E0,1.4461524E0,-3.4265772E-1,2.4089127E0,1.3957145E0,2.0377412E0,-4.654799E-1,1.175018E0,1.3474281E0,1.6866328E0,3.1030238E-1,1.2801138E-1,2.8676674E-1,3.5432906E0,-1.0821066E0,5.3299135E-1,-6.2072903E-2,3.2276583E-1,3.5077554E-1,1E0,-6.1791116E-1,-5.7253265E-1,1.2051129E0,-4.0580523E-1,1.13593556E-1,3.186378E-1,-2.9245964E-1,2.5914118E-1,-3.2773873E-1,-5.345013E-1,4.6747267E-2,2.817851E-1,2.2444388E-1,3.2467175E-1,-2.7071685E-1,3.043402E-1,-4.267554E-1,2.1651013E-1,2.161691E-1,3.3061686E-1,-3.357386E-1,2.5147924E-1,2.8676674E-1,-4.0010822E-1,-2.0586944E-1,-3.384572E-1,2.2808117E-1,-2.4798729E-1,-3.534835E-1,2.1840174E-1,-5.899842E-1,2.9474297E-1,-4.0394005E-1,5.1788304E-2,1.15544535E-1,2.9491663E-1],"split_indices":[2,0,4,3,1,3,3,4,4,2,0,3,3,3,4,0,0,3,7,0,0,4,1,5,0,3,3,0,2,2,6,1,4,0,3,3,3,0,3,0,3,0,0,0,2,3,3,4,0,0,7,2,0,3,0,0,0,0,0,0,0,0,0,0,0,0,0,0,0,0,0,0,0,0,0,0,0,0,0,0,0,0,0,0,0,0,0],"split_type":[0,0,0,0,0,0,0,0,0,0,0,0,0,0,0,0,0,0,0,0,0,0,0,0,0,0,0,0,0,0,0,0,0,0,0,0,0,0,0,0,0,0,0,0,0,0,0,0,0,0,0,0,0,0,0,0,0,0,0,0,0,0,0,0,0,0,0,0,0,0,0,0,0,0,0,0,0,0,0,0,0,0,0,0,0,0,0],"sum_hessian":[1.7471449E3,6.2069934E2,1.1264456E3,2.8366214E2,3.3703723E2,8.135134E2,3.1293213E2,5.3687656E1,2.2997447E2,1.0274075E2,2.3429648E2,7.520524E1,7.383082E2,2.2897842E2,8.39537E1,4.0781445E1,1.2906211E1,1.2703548E2,1.02938995E2,9.951504E1,3.2257133E0,3.1357073E1,2.029394E2,6.2485043E1,1.2720196E1,6.7848456E2,5.9823647E1,3.5601196E1,1.9337723E2,5.303193E1,3.092177E1,5.678261E0,3.5103184E1,3.0644726E1,9.639075E1,9.166989E1,1.1269103E1,3.0736423E0,2.828343E1,1.6296164E2,3.997776E1,5.8068836E1,4.4162045E0,3.9407136E0,8.779482E0,4.9973135E2,1.787532E2,3.5305874E1,2.451777E1,2.251314E1,1.3088055E1,1.8713155E2,6.2456894E0,5.0116196E1,2.9157343E0,3.1440473E0,2.7777723E1,2.5731099E0,3.105151E0,3.1368109E1,3.7350767E0,2.595099E1,7.043976E1,1.7079958E1,7.4589935E1,2.5315723E0,8.737532E0,2.130768E0,2.6152662E1,8.335517E1,7.960646E1,6.438916E0,3.3538845E1,3.9407136E0,4.838768E0,1.2272989E2,3.7700146E2,2.5767431E1,1.5298578E2,4.0912237E0,3.1214651E1,2.1655312E0,1.09225235E1,5.35928E0,1.8177226E2,2.4836023E1,2.5280172E1],"tree_param":{"num_deleted":"0","num_feature":"8","num_nodes":"87","size_leaf_vector":"1"}},{"base_weights":[-4.8454283E-3,5.771627E-1,-3.1348336E-1,3.3590752E-1,7.7839935E-1,-5.700874E-1,2.5047037E-1,-4.7742516E-1,5.4873955E-1,9.319528E-1,5.98069E-1,7.9591745E-1,-7.08863E-1,6.2187594E-1,9.5535405E-2,-3.3804923E-1,6.0620236E-1,2.6028275E-1,9.5352584E-1,7.402366E-1,1.0587819E0,-1.1226359E-1,8.2619464E-1,9.3480164E-1,1.2103465E-1,-8.2658094E-1,7.197982E-1,7.393468E-1,-2.1085884E-1,2.4411014E-1,-4.769398E-1,8.1039983E-1,-2.7082765E-1,-3.28925E-1,6.440039E-1,5.8274376E-1,1.0085729E0,9.8505783E-1,2.880708E-1,1.2195793E-1,3.2104647E-1,-1.1280291E0,8.7654597E-1,1.025585E0,4.3053335E-1,2.9353783E-1,1.05165355E-1,2.6298374E-1,-2.780977E-1,-4.7957742E-1,-9.526328E-1,4.622087E-1,3.0959493E-1,7.9428725E-2,8.0445E-1,-4.9037167E-1,2.320591E-1,-8.567605E-2,5.2010864E-1,-1.3296592E0,4.7554427E-1,6.7705974E-2,2.8223684E-1,9.948897E-2,3.052809E-1,-2.570232E-1,2.954832E-1,1.6675037E-1,3.1156796E-1,3.091111E-1,7.932988E-2,-5.0599897E-1,1.489781E-1,-6.179403E-1,1.7995913E-2,-2.978198E-1,3.186134E-1,2.1330754E-1,3.189196E-1,-3.1040472E-1,2.1744399E-1,2.6298374E-1,-3.5517633E-1,-3.492291E-1,-1.1455341E-3,-1.7237599E-1,-3.250047E-1,-3.1141958E-1,2.0567901E-1,2.9073596E-1,-5.1606643E-1,-2.2696175E-2,2.6084995E-1,1.6208938E-1,-2.0762888E-1,2.6406533E-1,2.61714E-2,1.2816869E-1,-6.278728E-1,-1.2116726E-2,2.4554923E-1],"categories":[],"categories_nodes":[],"categories_segments":[],"categories_sizes":[],"default_left":[0,0,0,0,0,0,0,0,0,0,0,0,0,0,0,0,0,0,0,0,0,0,0,0,0,0,0,0,0,0,0,0,0,0,0,0,0,0,0,0,0,0,0,0,0,0,0,0,0,0,0,0,0,0,0,0,0,0,0,0,0,0,0,0,0,0,0,0,0,0,0,0,0,0,0,0,0,0,0,0,0,0,0,0,0,0,0,0,0,0,0,0,0,0,0,0,0,0,0,0,0],"id":6,"left_children":[1,3,5,7,9,11,13,15,17,19,21,23,25,27,29,-1,31,33,35,37,39,41,43,45,47,49,51,53,55,57,59,61,-1,-1,63,65,67,69,71,-1,-1,73,75,77,79,-1,-1,-1,81,83,85,87,-1,89,91,-1,-1,93,95,97,99,-1,-1,-1,-1,-1,-1,-1,-1,-1,-1,-1,-1,-1,-1,-1,-1,-1,-1,-1,-1,-1,-1,-1,-1,-1,-1,-1,-1,-1,-1,-1,-1,-1,-1,-1,-1,-1,-1,-1,-1],"loss_changes":[2.6106998E2,2.4190231E1,1.3758011E2,4.02155E1,7.025284E0,1.24358505E2,1.7070885E1,3.4746662E1,2.116645E1,2.768921E0,2.0952782E1,5.5759125E0,1.0038187E2,8.71022E0,1.8083857E1,0E0,6.520911E0,5.7172012E1,9.621811E-1,6.523945E0,2.0001984E-1,3.3303005E1,7.2548294E0,9.3715286E-1,3.714193E0,2.354065E1,3.1981792E0,3.2381706E0,1.7506208E1,1.53704E1,3.626041E1,1.0895777E0,0E0,0E0,9.603321E0,7.898484E0,3.0182648E-1,1.0167694E0,1.0314457E1,0E0,0E0,1.8175093E1,6.90238E0,3.7384033E-4,1.5588282E1,0E0,0E0,0E0,9.707924E0,4.826086E1,1.9214874E1,9.71093E0,0E0,1.4493901E1,4.0646057E0,0E0,0E0,2.9820665E1,1.4233915E1,3.2283794E1,3.8297658E0,0E0,0E0,0E0,0E0,0E0,0E0,0E0,0E0,0E0,0E0,0E0,0E0,0E0,0E0,0E0,0E0,0E0,0E0,0E0,0E0,0E0,0E0,0E0,0E0,0E0,0E0,0E0,0E0,0E0,0E0,0E0,0E0,0E0,0E0,0E0,0E0,0E0,0E0,0E0,0E0],"parents":[2147483647,0,0,1,1,2,2,3,3,4,4,5,5,6,6,7,7,8,8,9,9,10,10,11,11,12,12,13,13,14,14,16,16,17,17,18,18,19,19,20,20,21,21,22,22,23,23,24,24,25,25,26,26,27,27,28,28,29,29,30,30,31,31,34,34,35,35,36,36,37,37,38,38,41,41,42,42,43,43,44,44,48,48,49,49,50,50,51,51,53,53,54,54,57,57,58,58,59,59,60,60],"right_children":[2,4,6,8,10,12,14,16,18,20,22,24,26,28,30,-1,32,34,36,38,40,42,44,46,48,50,52,54,56,58,60,62,-1,-1,64,66,68,70,72,-1,-1,74,76,78,80,-1,-1,-1,82,84,86,88,-1,90,92,-1,-1,94,96,98,100,-1,-1,-1,-1,-1,-1,-1,-1,-1,-1,-1,-1,-1,-1,-1,-1,-1,-1,-1,-1,-1,-1,-1,-1,-1,-1,-1,-1,-1,-1,-1,-1,-1,-1,-1,-1,-1,-1,-1,-1],"split_conditions":[-8.745E-1,7.9747176E-1,1.4775739E0,1.2753346E0,6.702614E-1,-2.4263496E0,-4.617266E-1,1.5561273E0,1.2419137E0,1.0474519E0,1.2974321E0,-2.626983E0,1.7668861E0,1E0,-8.897184E-2,-3.3804923E-1,-3.5243705E-1,2.158121E0,1E0,4.0065783E-1,-1.3151635E0,1.1319388E0,1.4116712E0,1E0,-2.1022983E0,-5.509749E-1,2.158121E0,7.15348E-2,1.2974321E0,4.0065783E-1,5.831497E-1,-1.0474186E0,-2.7082765E-1,-3.28925E-1,2.7399576E0,2.0377412E0,-1.2023696E0,-9.1354614E-1,-1.2816954E0,1.2195793E-1,3.2104647E-1,-9.9163836E-1,1.175018E0,1.3474281E0,1.6866328E0,2.9353783E-1,1.05165355E-1,2.6298374E-1,3.5432906E0,-7.114837E-2,-1.0821066E0,-6.2072903E-2,3.0959493E-1,-9.523894E-1,-9.523894E-1,-4.9037167E-1,2.320591E-1,-1.0147607E0,5.4749155E-1,-1.2523656E0,1.7603661E0,6.7705974E-2,2.8223684E-1,9.948897E-2,3.052809E-1,-2.570232E-1,2.954832E-1,1.6675037E-1,3.1156796E-1,3.091111E-1,7.932988E-2,-5.0599897E-1,1.489781E-1,-6.179403E-1,1.7995913E-2,-2.978198E-1,3.186134E-1,2.1330754E-1,3.189196E-1,-3.1040472E-1,2.1744399E-1,2.6298374E-1,-3.5517633E-1,-3.492291E-1,-1.1455341E-3,-1.7237599E-1,-3.250047E-1,-3.1141958E-1,2.0567901E-1,2.9073596E-1,-5.1606643E-1,-2.2696175E-2,2.6084995E-1,1.6208938E-1,-2.0762888E-1,2.6406533E-1,2.61714E-2,1.2816869E-1,-6.278728E-1,-1.2116726E-2,2.4554923E-1],"split_indices":[2,0,4,3,1,3,2,4,4,0,0,3,3,7,3,0,0,3,6,1,2,4,1,5,0,2,3,3,0,1,3,2,0,0,3,3,0,2,2,0,0,2,3,0,3,0,0,0,2,1,3,4,0,0,0,0,0,1,0,0,4,0,0,0,0,0,0,0,0,0,0,0,0,0,0,0,0,0,0,0,0,0,0,0,0,0,0,0,0,0,0,0,0,0,0,0,0,0,0,0,0],"split_type":[0,0,0,0,0,0,0,0,0,0,0,0,0,0,0,0,0,0,0,0,0,0,0,0,0,0,0,0,0,0,0,0,0,0,0,0,0,0,0,0,0,0,0,0,0,0,0,0,0,0,0,0,0,0,0,0,0,0,0,0,0,0,0,0,0,0,0,0,0,0,0,0,0,0,0,0,0,0,0,0,0,0,0,0,0,0,0,0,0,0,0,0,0,0,0,0,0,0,0,0,0],"sum_hessian":[1.4513707E3,5.026458E2,9.4872485E2,2.2980743E2,2.7283838E2,6.520331E2,2.966918E2,4.7405445E1,1.82402E2,1.4510863E2,1.2772976E2,5.9695873E1,5.923372E2,8.6447815E1,2.1024397E2,2.9616653E1,1.778879E1,1.0746432E2,7.493767E1,6.0497097E1,8.4611534E1,3.1172718E1,9.655704E1,4.918828E1,1.0507595E1,5.4763495E2,4.4702244E1,7.585884E1,1.0588981E1,1.673779E2,4.2866074E1,1.6076242E1,1.712547E0,2.3283817E1,8.41805E1,1.1184973E1,6.3752697E1,3.8482533E1,2.2014566E1,2.0797513E0,8.2531784E1,1.5307314E1,1.5865403E1,6.314402E1,3.341302E1,4.5140465E1,4.0478144E0,3.2185056E0,7.289089E0,1.4720479E2,4.0043018E2,2.5851912E1,1.8850334E1,7.01108E0,6.8847755E1,4.058587E0,6.530393E0,7.657238E1,9.080552E1,2.2408594E1,2.0457478E1,3.429229E0,1.2647015E1,4.687499E1,3.7305508E1,2.1958418E0,8.989131E0,5.1738834E0,5.8578815E1,3.580153E1,2.6810033E0,1.4255766E0,2.058899E1,8.167584E0,7.13973E0,1.03942E0,1.4825983E1,8.84887E0,5.429515E1,5.1676054E0,2.8245415E1,3.2185056E0,4.070584E0,5.976639E1,8.743839E1,1.04268776E2,2.961614E2,2.8777854E0,2.2974125E1,5.0004888E0,2.010591E0,4.727199E0,6.412056E1,3.7732376E1,3.8840004E1,4.900466E1,4.1800858E1,6.92001E0,1.54885845E1,8.52094E0,1.1936537E1],"tree_param":{"num_deleted":"0","num_feature":"8","num_nodes":"101","size_leaf_vector":"1"}},{"base_weights":[-4.419458E-3,5.2631706E-1,-2.716094E-1,4.0827087E-1,9.1238123E-1,-5.136206E-1,1.9778433E-1,5.430935E-2,6.5497017E-1,7.3951066E-1,1.011628E0,7.41518E-1,-6.378373E-1,1.419509E-1,3.4243816E-1,-6.225345E-1,6.355771E-1,7.354146E-1,-2.0594667E-1,-7.63143E-2,8.2414675E-1,6.1133033E-1,3.1293285E-1,8.726719E-1,1.2250178E-1,-7.437921E-1,6.4262444E-1,4.3414324E-3,6.447688E-1,-1.4592428E0,-1.5247121E-1,1.3050666E-1,8.6157113E-1,6.082941E-1,3.1157905E-1,-4.3268192E-1,2.789558E-1,5.275764E-1,3.1355834E-1,2.5021213E-1,2.5230583E-2,9.258277E-1,8.5732535E-2,2.4223761E-1,-2.4949104E-1,-8.982825E-1,-3.8852334E-1,3.8096866E-1,2.9842246E-1,2.814617E-1,-7.9707754E-1,-3.4915933E-1,7.398124E-1,-3.1286225E-1,-7.1848994E-1,-3.030697E-1,2.160165E-1,-3.689281E-1,1.7646651E-1,7.478446E-2,2.803031E-1,2.4055953E-1,-1.9230014E-1,-1.3971522E-1,2.9633483E-1,2.8436986E-1,9.18363E-2,2.4223761E-1,-3.203528E-1,-3.236246E-1,-1.4518532E-1,2.6436822E-2,-3.3530843E-1,-1.3240795E-1,2.3663372E-1,9.6993454E-2,-5.9434956E-1,-4.155175E-1,5.1699188E-2,2.5350833E-1,-1.486786E-1],"categories":[],"categories_nodes":[],"categories_segments":[],"categories_sizes":[],"default_left":[0,0,0,0,0,0,0,0,0,0,0,0,0,0,0,0,0,0,0,0,0,0,0,0,0,0,0,0,0,0,0,0,0,0,0,0,0,0,0,0,0,0,0,0,0,0,0,0,0,0,0,0,0,0,0,0,0,0,0,0,0,0,0,0,0,0,0,0,0,0,0,0,0,0,0,0,0,0,0,0,0],"id":7,"left_children":[1,3,5,7,9,11,13,15,17,19,21,23,25,27,-1,29,31,33,35,-1,37,39,-1,41,43,45,47,49,51,53,55,57,59,61,-1,-1,-1,63,-1,-1,-1,65,-1,-1,67,69,71,73,-1,75,77,-1,79,-1,-1,-1,-1,-1,-1,-1,-1,-1,-1,-1,-1,-1,-1,-1,-1,-1,-1,-1,-1,-1,-1,-1,-1,-1,-1,-1,-1],"loss_changes":[1.7226155E2,1.816542E1,9.1886734E1,2.7324886E1,8.722305E-1,8.363365E1,1.4358236E1,5.145406E1,1.2932625E1,3.4198608E0,8.415222E-2,3.8303566E0,6.639989E1,1.8079536E1,0E0,2.3558702E1,7.913351E0,5.881508E0,2.4583729E1,0E0,1.7695198E0,7.039015E-1,0E0,9.787636E-1,2.6582415E0,2.4306976E1,3.09173E0,4.6016384E1,1.0512539E1,5.9308357E0,3.0538095E1,1.4990295E1,1.9236374E0,2.989257E1,0E0,0E0,0E0,8.294319E0,0E0,0E0,0E0,2.0358086E-1,0E0,0E0,6.9277406E0,2.2830872E1,4.8028908E1,8.13904E0,0E0,1.5218003E1,3.0584469E1,0E0,7.4320164E0,0E0,0E0,0E0,0E0,0E0,0E0,0E0,0E0,0E0,0E0,0E0,0E0,0E0,0E0,0E0,0E0,0E0,0E0,0E0,0E0,0E0,0E0,0E0,0E0,0E0,0E0,0E0,0E0],"parents":[2147483647,0,0,1,1,2,2,3,3,4,4,5,5,6,6,7,7,8,8,9,9,10,10,11,11,12,12,13,13,15,15,16,16,17,17,18,18,20,20,21,21,23,23,24,24,25,25,26,26,27,27,28,28,29,29,30,30,31,31,32,32,33,33,37,37,41,41,44,44,45,45,46,46,47,47,49,49,50,50,52,52],"right_children":[2,4,6,8,10,12,14,16,18,20,22,24,26,28,-1,30,32,34,36,-1,38,40,-1,42,44,46,48,50,52,54,56,58,60,62,-1,-1,-1,64,-1,-1,-1,66,-1,-1,68,70,72,74,-1,76,78,-1,80,-1,-1,-1,-1,-1,-1,-1,-1,-1,-1,-1,-1,-1,-1,-1,-1,-1,-1,-1,-1,-1,-1,-1,-1,-1,-1,-1,-1],"split_conditions":[-8.745E-1,2.4089127E0,1.4775739E0,7.9747176E-1,2.7399576E0,-2.4263496E0,4.0341563E0,1.179071E0,1.4116712E0,-4.755537E-1,-1.6219544E0,-2.626983E0,1.7668861E0,1.8389195E0,3.4243816E-1,-1.1031988E0,1.3254929E0,1.3474281E0,1.3518884E0,-7.63143E-2,-1.2816954E0,-5.5242115E-1,3.1293285E-1,1E0,-2.1022983E0,4.8283306E-1,2.158121E0,1.6301146E-1,-1.1523736E0,2.158121E0,2.158121E0,1.5561273E0,1E0,7.3766226E-1,3.1157905E-1,-4.3268192E-1,2.789558E-1,9.1198933E-1,3.1355834E-1,2.5021213E-1,2.5230583E-2,1.8973845E0,8.5732535E-2,2.4223761E-1,3.5432906E0,5.8206505E-1,-9.3494266E-2,5.977757E-1,2.9842246E-1,1.8074982E0,1.6975234E0,-3.4915933E-1,1.3974241E0,-3.1286225E-1,-7.1848994E-1,-3.030697E-1,2.160165E-1,-3.689281E-1,1.7646651E-1,7.478446E-2,2.803031E-1,2.4055953E-1,-1.9230014E-1,-1.3971522E-1,2.9633483E-1,2.8436986E-1,9.18363E-2,2.4223761E-1,-3.203528E-1,-3.236246E-1,-1.4518532E-1,2.6436822E-2,-3.3530843E-1,-1.3240795E-1,2.3663372E-1,9.6993454E-2,-5.9434956E-1,-4.155175E-1,5.1699188E-2,2.5350833E-1,-1.486786E-1],"split_indices":[2,3,4,0,3,3,2,4,1,1,2,3,3,4,0,2,3,0,4,0,2,0,0,5,0,3,3,2,0,3,3,4,6,1,0,0,0,4,0,0,0,0,0,0,2,4,4,4,0,4,4,0,0,0,0,0,0,0,0,0,0,0,0,0,0,0,0,0,0,0,0,0,0,0,0,0,0,0,0,0,0],"split_type":[0,0,0,0,0,0,0,0,0,0,0,0,0,0,0,0,0,0,0,0,0,0,0,0,0,0,0,0,0,0,0,0,0,0,0,0,0,0,0,0,0,0,0,0,0,0,0,0,0,0,0,0,0,0,0,0,0,0,0,0,0,0,0,0,0,0,0,0,0,0,0,0,0,0,0,0,0,0,0,0,0],"sum_hessian":[1.2127487E3,4.0577063E2,8.06978E2,3.123281E2,9.344252E1,5.3239185E2,2.7458618E2,1.287784E2,1.8354971E2,3.716273E1,5.6279785E1,4.7496567E1,4.8489526E2,2.6033374E2,1.4252448E1,5.946488E1,6.931351E1,1.6799771E2,1.5552004E1,2.758913E0,3.440382E1,5.592164E0,5.0687622E1,3.8854507E1,8.642059E0,4.4822498E2,3.6670296E1,2.051874E2,5.514635E1,2.0633352E1,3.8831528E1,2.1914536E1,4.739897E1,1.2048585E2,4.751186E1,7.317269E0,8.2347355E0,1.6138365E1,1.8265455E1,3.522336E0,2.0698278E0,3.5098137E1,3.7563677E0,2.629565E0,6.012494E0,3.113182E2,1.3690675E2,2.2231876E1,1.4438417E1,1.5294856E2,5.223883E1,2.1918037E0,5.2954548E1,1.5742794E1,4.8905582E0,1.950186E1,1.932967E1,5.0927715E0,1.6821764E1,5.505191E0,4.189378E1,1.0463189E2,1.5853959E1,5.1059275E0,1.1032436E1,3.3379673E1,1.7184647E0,2.629565E0,3.382929E0,2.1574481E2,9.557341E1,8.3320694E1,5.358607E1,7.342944E0,1.4888933E1,1.5101253E2,1.9360379E0,3.2249554E1,1.9989277E1,4.9089737E1,3.8648095E0],"tree_param":{"num_deleted":"0","num_feature":"8","num_nodes":"81","size_leaf_vector":"1"}},{"base_weights":[-4.5267255E-3,3.713144E-1,-2.9914635E-1,2.9451475E-1,1.8666868E0,-5.4235053E-1,1.4170603E-1,4.735346E-1,-3.005598E-1,-4.596836E-2,3.3440032E0,6.8829787E-1,-6.8440545E-1,7.724698E-1,4.154125E-2,3.6092076E-1,8.522255E-1,-9.249542E-1,4.7447556E-1,-3.4862018E-1,2.9012364E-1,1.6605371E0,1.8898487E0,8.096611E-1,1.2483715E-1,-7.275858E-1,7.699477E-1,1.0612622E0,2.1898536E-1,9.0575874E-2,-4.2074433E-1,7.4682124E-2,6.1777526E-1,6.616077E-1,9.70767E-1,-1.1671883E0,2.7016354E-1,-3.2904494E-1,6.886959E-1,-2.031262E-1,7.2772855E-1,8.731499E-1,6.938204E-2,2.2343843E-1,-2.2462249E-1,-5.209764E-1,-3.2551515E-1,1.3956913E-2,2.8290448E-1,6.825773E-1,3.7906477E-1,7.702225E-1,-4.283029E-1,-1.2376251E-1,3.7337762E-1,-1.3894449E-1,1.8108508E-1,2.6541018E-1,1.00671284E-1,6.936809E-2,2.7104917E-1,1.6340311E-1,3.0274984E-1,-3.215278E-1,-6.1695224E-1,2.3981807E-1,-3.6935377E-1,2.6978603E-1,7.8985944E-2,2.2343843E-1,-2.912534E-1,-2.2121534E-1,3.6667475E-1,2.6737106E-1,1.1305956E-1,3.1372106E-1,5.969766E-2,-1.3662067E-1,1.4890638E-1,-4.4490656E-1,1.28312E-1],"categories":[],"categories_nodes":[],"categories_segments":[],"categories_sizes":[],"default_left":[0,0,0,0,0,0,0,0,0,0,0,0,0,0,0,0,0,0,0,0,0,0,0,0,0,0,0,0,0,0,0,0,0,0,0,0,0,0,0,0,0,0,0,0,0,0,0,0,0,0,0,0,0,0,0,0,0,0,0,0,0,0,0,0,0,0,0,0,0,0,0,0,0,0,0,0,0,0,0,0,0],"id":8,"left_children":[1,3,5,7,9,11,13,15,17,19,21,23,25,27,29,31,33,35,37,-1,-1,-1,39,41,43,45,47,49,51,53,-1,55,57,59,61,63,-1,-1,65,-1,-1,67,-1,-1,69,71,-1,-1,-1,73,-1,75,-1,77,79,-1,-1,-1,-1,-1,-1,-1,-1,-1,-1,-1,-1,-1,-1,-1,-1,-1,-1,-1,-1,-1,-1,-1,-1,-1,-1],"loss_changes":[1.1438103E2,5.158052E1,6.2160435E1,4.6263046E1,6.227871E1,6.574581E1,1.3024891E1,1.3902077E1,4.9186848E1,1.3072567E1,2.9107803E1,2.5753365E0,2.1613419E1,4.285326E0,1.2829714E1,1.8963764E1,1.0668983E0,2.587072E1,1.6106554E1,0E0,0E0,0E0,1.4000023E1,9.7387505E-1,1.9261316E0,2.3518448E1,1.227221E0,5.4035187E-1,1.1039673E1,1.0620304E1,0E0,3.539079E1,9.958069E0,3.137292E0,1.7836761E-1,2.038231E0,0E0,0E0,9.644358E0,0E0,0E0,2.173996E-1,0E0,0E0,5.034606E0,7.9585655E1,0E0,0E0,0E0,2.096026E-1,0E0,1.1853485E0,0E0,2.0788696E1,8.244936E0,0E0,0E0,0E0,0E0,0E0,0E0,0E0,0E0,0E0,0E0,0E0,0E0,0E0,0E0,0E0,0E0,0E0,0E0,0E0,0E0,0E0,0E0,0E0,0E0,0E0,0E0],"parents":[2147483647,0,0,1,1,2,2,3,3,4,4,5,5,6,6,7,7,8,8,9,9,10,10,11,11,12,12,13,13,14,14,15,15,16,16,17,17,18,18,22,22,23,23,24,24,25,25,26,26,27,27,28,28,29,29,31,31,32,32,33,33,34,34,35,35,38,38,41,41,44,44,45,45,49,49,51,51,53,53,54,54],"right_children":[2,4,6,8,10,12,14,16,18,20,22,24,26,28,30,32,34,36,38,-1,-1,-1,40,42,44,46,48,50,52,54,-1,56,58,60,62,64,-1,-1,66,-1,-1,68,-1,-1,70,72,-1,-1,-1,74,-1,76,-1,78,80,-1,-1,-1,-1,-1,-1,-1,-1,-1,-1,-1,-1,-1,-1,-1,-1,-1,-1,-1,-1,-1,-1,-1,-1,-1,-1],"split_conditions":[-6.513792E-1,-6.681133E-1,1.5247059E0,-8.745E-1,9.474598E-1,-2.4263496E0,-1.6539115E0,2.4089127E0,1.273335E0,1.5863161E0,9.974559E-1,-2.626983E0,1.8270761E0,-1.524529E-1,1.1391647E0,9.474598E-1,2.7399576E0,2.158121E0,5.931814E-1,-3.4862018E-1,2.9012364E-1,1.6605371E0,1.7973924E0,1E0,-2.1022983E0,3.4750742E-1,2.5214073E-1,-4.5242912E-1,1E0,6.028605E-1,-4.2074433E-1,1.2419137E0,6.702614E-1,2.975114E-1,-1.6219544E0,1.7668861E0,2.7016354E-1,-3.2904494E-1,1E0,-2.031262E-1,7.2772855E-1,1.8973845E0,6.938204E-2,2.2343843E-1,3.5432906E0,2.4751537E-1,-3.2551515E-1,1.3956913E-2,2.8290448E-1,-1.752326E0,3.7906477E-1,1.3105428E-1,-4.283029E-1,1.7917875E0,-1.1523283E0,-1.3894449E-1,1.8108508E-1,2.6541018E-1,1.00671284E-1,6.936809E-2,2.7104917E-1,1.6340311E-1,3.0274984E-1,-3.215278E-1,-6.1695224E-1,2.3981807E-1,-3.6935377E-1,2.6978603E-1,7.8985944E-2,2.2343843E-1,-2.912534E-1,-2.2121534E-1,3.6667475E-1,2.6737106E-1,1.1305956E-1,3.1372106E-1,5.969766E-2,-1.3662067E-1,1.4890638E-1,-4.4490656E-1,1.28312E-1],"split_indices":[2,2,4,2,0,3,3,3,4,3,0,3,3,0,2,0,3,3,3,0,0,0,0,5,0,0,4,0,6,1,0,4,1,0,2,3,0,0,7,0,0,0,0,0,2,0,0,0,0,0,0,1,0,4,3,0,0,0,0,0,0,0,0,0,0,0,0,0,0,0,0,0,0,0,0,0,0,0,0,0,0],"split_type":[0,0,0,0,0,0,0,0,0,0,0,0,0,0,0,0,0,0,0,0,0,0,0,0,0,0,0,0,0,0,0,0,0,0,0,0,0,0,0,0,0,0,0,0,0,0,0,0,0,0,0,0,0,0,0,0,0,0,0,0,0,0,0,0,0,0,0,0,0,0,0,0,0,0,0,0,0,0,0,0,0],"sum_hessian":[1.0309677E3,4.5292224E2,5.7804535E2,4.3193573E2,2.0986502E1,3.723832E2,2.0566214E2,3.3220172E2,9.9734E1,9.567942E0,1.1418559E1,3.8138344E1,3.3424487E2,2.7263676E1,1.7839847E2,2.575619E2,7.4639824E1,5.5127785E1,4.460622E1,4.4824343E0,5.085508E0,3.4355109E0,7.9830484E0,3.102003E1,7.118314E0,3.2509247E2,9.152413E0,1.7312885E1,9.950791E0,1.7344604E2,4.952427E0,1.2242368E2,1.3513821E2,3.1142738E1,4.349709E1,4.8987957E1,6.1398244E0,4.85741E0,3.974881E1,1.3333051E0,6.649743E0,2.7492579E1,3.5274503E0,2.158233E0,4.9600806E0,2.0757474E2,1.17517715E2,2.0118108E0,7.140602E0,7.5512E0,9.761684E0,7.8538766E0,2.0969145E0,9.898594E1,7.4460106E1,6.0763073E1,6.1660614E1,6.835197E1,6.678625E1,1.1909223E1,1.9233515E1,4.851196E0,3.8645893E1,4.6232136E1,2.755822E0,3.8133694E1,1.6151187E0,2.5907684E1,1.5848944E0,2.158233E0,2.801848E0,1.8516495E2,2.2409796E1,3.349658E0,4.201542E0,4.7379875E0,3.115889E0,6.466734E1,3.4318592E1,1.3694541E0,7.309065E1],"tree_param":{"num_deleted":"0","num_feature":"8","num_nodes":"81","size_leaf_vector":"1"}},{"base_weights":[-8.704934E-3,3.9793572E-1,-2.0318207E-1,2.943979E-1,7.855067E-1,-4.561144E-1,8.496389E-2,-3.461166E-1,4.000792E-1,5.7481855E-1,9.301245E-1,6.368083E-1,-5.6760156E-1,4.566304E0,-4.629677E-3,-1.2517198E0,3.0200815E-1,4.542958E-1,-3.496014E-1,1.2198288E-2,7.815379E-1,4.7084737E-1,2.9341495E-1,7.315045E-1,1.815225E-1,-8.84056E-1,-1.1471065E-1,-1.2096801E-1,2.4082355E0,-7.6337653E-1,1.2390316E-1,-2.8450233E-1,-5.312095E-1,-1.1333126E-1,2.762016E-1,3.3391774E-1,3.0226296E-1,-4.034724E-1,2.521705E-1,-4.8211053E-1,2.6353958E-1,4.191456E-1,9.249571E-1,2.22681E-1,-1.1151083E-2,8.071031E-1,5.5784907E-2,2.0608383E-1,-1.4779086E-1,-3.1290174E-1,-3.5306823E-1,-8.585419E-1,1.8282014E-1,-1.8401259E-1,1.561961E-1,-3.1122616E-1,7.581706E-1,6.2180936E-2,8.429432E-1,-4.2064893E-1,1.703982E-1,1.5320823E-1,-7.377005E-2,2.7681354E-1,-2.815738E-1,7.058905E-2,2.920731E-1,2.5315785E-1,1.1937933E-2,2.0608383E-1,-2.591064E-1,1.4997106E0,-3.0853856E-1,-3.4661138E-1,2.571117E-1,4.0707222E-1,-6.328894E-2,1.1454141E-2,2.6410976E-1,-1.8172142E-3,2.1032377E-1,1.15805954E-1,2.9072455E-1],"categories":[],"categories_nodes":[],"categories_segments":[],"categories_sizes":[],"default_left":[0,0,0,0,0,0,0,0,0,0,0,0,0,0,0,0,0,0,0,0,0,0,0,0,0,0,0,0,0,0,0,0,0,0,0,0,0,0,0,0,0,0,0,0,0,0,0,0,0,0,0,0,0,0,0,0,0,0,0,0,0,0,0,0,0,0,0,0,0,0,0,0,0,0,0,0,0,0,0,0,0,0,0],"id":9,"left_children":[1,3,5,7,9,11,13,15,17,19,21,23,25,27,29,31,33,35,37,39,41,43,-1,45,47,49,51,53,-1,55,57,-1,-1,59,-1,61,-1,-1,-1,-1,-1,63,65,-1,-1,67,-1,-1,69,-1,71,73,75,-1,-1,-1,77,79,81,-1,-1,-1,-1,-1,-1,-1,-1,-1,-1,-1,-1,-1,-1,-1,-1,-1,-1,-1,-1,-1,-1,-1,-1],"loss_changes":[7.156587E1,1.1517628E1,4.465301E1,1.5887104E1,1.3278236E0,4.0101868E1,1.1525051E2,2.0032774E1,8.294769E0,3.1885738E0,3.017006E-1,1.1891575E0,4.2391197E1,9.224964E1,2.763254E1,5.5070305E-1,5.3265905E0,1.212455E1,1.7791702E1,1.3200494E1,6.5663815E-1,7.446567E-1,0E0,8.8315487E-1,1.2016101E0,1.4349915E1,2.740139E1,1.3856604E0,0E0,1.7900873E1,1.0702238E1,0E0,0E0,1.2256125E1,0E0,1.6029678E1,0E0,0E0,0E0,0E0,0E0,6.011575E0,2.258482E-1,0E0,0E0,5.785446E-1,0E0,0E0,3.4765759E0,0E0,1.558309E2,1.8990587E1,4.1321278E1,0E0,0E0,0E0,5.683403E-1,9.780936E0,7.2544384E-1,0E0,0E0,0E0,0E0,0E0,0E0,0E0,0E0,0E0,0E0,0E0,0E0,0E0,0E0,0E0,0E0,0E0,0E0,0E0,0E0,0E0,0E0,0E0,0E0],"parents":[2147483647,0,0,1,1,2,2,3,3,4,4,5,5,6,6,7,7,8,8,9,9,10,10,11,11,12,12,13,13,14,14,15,15,16,16,17,17,18,18,19,19,20,20,21,21,23,23,24,24,25,25,26,26,27,27,29,29,30,30,33,33,35,35,41,41,42,42,45,45,48,48,50,50,51,51,52,52,56,56,57,57,58,58],"right_children":[2,4,6,8,10,12,14,16,18,20,22,24,26,28,30,32,34,36,38,40,42,44,-1,46,48,50,52,54,-1,56,58,-1,-1,60,-1,62,-1,-1,-1,-1,-1,64,66,-1,-1,68,-1,-1,70,-1,72,74,76,-1,-1,-1,78,80,82,-1,-1,-1,-1,-1,-1,-1,-1,-1,-1,-1,-1,-1,-1,-1,-1,-1,-1,-1,-1,-1,-1,-1,-1],"split_conditions":[-8.745E-1,2.4089127E0,1.1162282E0,-5.5242115E-1,2.7399576E0,-2.4263496E0,1.1319388E0,1.2419137E0,1.4116712E0,-1.3988338E0,-1.6219544E0,-2.626983E0,4.8283306E-1,1E0,1.4775739E0,2.158121E0,2.0377412E0,1.3474281E0,1.3518884E0,8.3343595E-1,9.7527266E-2,-5.5242115E-1,2.9341495E-1,1E0,-2.1022983E0,5.8206505E-1,-6.681133E-1,1.7471687E0,2.4082355E0,1.5863161E0,1.2051129E0,-2.8450233E-1,-5.312095E-1,1.5247059E0,2.762016E-1,6.702614E-1,3.0226296E-1,-4.034724E-1,2.521705E-1,-4.8211053E-1,2.6353958E-1,-7.0240927E-1,-1.3151635E0,2.22681E-1,-1.1151083E-2,5.6635433E-1,5.5784907E-2,2.0608383E-1,3.5432906E0,-3.1290174E-1,5.977757E-1,2.158121E0,-6.513792E-1,-1.8401259E-1,1.561961E-1,-3.1122616E-1,-4.5242912E-1,1.9089313E0,1E0,-4.2064893E-1,1.703982E-1,1.5320823E-1,-7.377005E-2,2.7681354E-1,-2.815738E-1,7.058905E-2,2.920731E-1,2.5315785E-1,1.1937933E-2,2.0608383E-1,-2.591064E-1,1.4997106E0,-3.0853856E-1,-3.4661138E-1,2.571117E-1,4.0707222E-1,-6.328894E-2,1.1454141E-2,2.6410976E-1,-1.8172142E-3,2.1032377E-1,1.15805954E-1,2.9072455E-1],"split_indices":[2,3,4,0,3,3,4,4,1,2,2,3,3,7,4,3,3,0,4,4,0,0,0,5,0,4,2,2,0,3,3,0,0,4,0,1,0,0,0,0,0,0,2,0,0,4,0,0,2,0,4,3,2,0,0,0,0,2,6,0,0,0,0,0,0,0,0,0,0,0,0,0,0,0,0,0,0,0,0,0,0,0,0],"split_type":[0,0,0,0,0,0,0,0,0,0,0,0,0,0,0,0,0,0,0,0,0,0,0,0,0,0,0,0,0,0,0,0,0,0,0,0,0,0,0,0,0,0,0,0,0,0,0,0,0,0,0,0,0,0,0,0,0,0,0,0,0,0,0,0,0,0,0,0,0,0,0,0,0,0,0,0,0,0,0,0,0,0,0],"sum_hessian":[9.029317E2,2.9178326E2,6.1114844E2,2.3165681E2,6.0126465E1,3.251507E2,2.8599774E2,3.2486588E1,1.9917023E2,2.649771E1,3.3628757E1,2.966166E1,2.9548904E2,4.626374E0,2.8137137E2,1.3163029E1,1.9323559E1,1.8610518E2,1.306504E1,7.4044104E0,1.9093298E1,4.200373E0,2.9428385E1,2.4052265E1,5.609394E0,1.7338525E2,1.2210378E2,2.37503E0,2.2513437E0,4.004444E1,2.4132693E2,1.0091295E1,3.0717342E0,1.2050367E1,7.273191E0,1.5416486E2,3.1940325E1,7.044175E0,6.0208645E0,2.28261E0,5.1218004E0,6.525969E0,1.2567328E1,2.437148E0,1.763225E0,2.070387E1,3.3483934E0,1.7845331E0,3.8248608E0,1.3269814E2,4.0687115E1,3.4347923E1,8.775586E1,1.368675E0,1.0063549E0,3.420246E1,5.841982E0,2.2324971E2,1.8077227E1,3.801414E0,8.248954E0,1.1823599E2,3.5928864E1,4.9941053E0,1.5318636E0,1.212194E0,1.1355135E1,1.9662231E1,1.0416405E0,1.7845331E0,2.0403275E0,3.8417566E0,3.684536E1,2.9560003E1,4.7879205E0,2.1426302E1,6.632956E1,1.0380589E0,4.803923E0,2.0260117E2,2.0648548E1,4.7891917E0,1.3288034E1],"tree_param":{"num_deleted":"0","num_feature":"8","num_nodes":"83","size_leaf_vector":"1"}},{"base_weights":[-2.0931374E-2,-1.6405103E-1,4.2864817E-1,-3.5421714E-1,1.12199314E-1,1.920179E-1,8.6577374E-1,-8.989939E-1,-1.8823256E-1,3.7743348E-1,-1.0802111E-2,5.270366E-2,8.555371E-1,9.1262203E-1,-2.4438567E-1,-3.158059E-1,4.2063364E-1,1.366514E-1,-5.033924E-1,-6.0004115E-1,5.0276715E-1,1.4119123E-1,-6.3301563E-1,-3.2787815E-1,4.1562763E-1,2.5448456E-1,2.787305E-1,6.25949E-1,9.616628E-1,-1.6657534E-1,6.3997966E-1,-3.782499E-2,1.1378047E0,1.9563344E-1,-3.089317E-1,2.0644511E-1,-4.161264E-1,6.168857E-1,-4.3969426E-1,6.381159E-2,3.2598993E-1,-1.3862923E0,1.8349269E-1,-1.3110163E0,1.4658664E-1,1.4532916E-1,9.899575E-1,-9.5763125E-2,1.9484575E-1,-4.005979E-1,2.643955E-1,4.6649647E-1,2.9786333E-1,2.5632739E-2,2.56114E-1,-2.8932798E-1,1.4297158E-1,4.9155334E-1,-3.0637744E-1,-1.2165979E-1,5.5830306E-1,-2.607218E-1,2.548448E-1,2.0724948E-1,1.0500988E-2,1.2619083E-1,-4.9042E-1,3.599047E-2,-6.409963E-1,-4.9087888E-1,1.1623351E-1,-4.491519E-1,1.2025737E-1,-8.102429E-2,-6.489519E-1,2.8772977E-1,-1.3435514E-1,2.7389643E-1,-5.6490097E-2,1.0269085E-1,3.143164E-1,1.2254629E-1,-3.0673435E-1,-3.289765E-2,2.23861E-1],"categories":[],"categories_nodes":[],"categories_segments":[],"categories_sizes":[],"default_left":[0,0,0,0,0,0,0,0,0,0,0,0,0,0,0,0,0,0,0,0,0,0,0,0,0,0,0,0,0,0,0,0,0,0,0,0,0,0,0,0,0,0,0,0,0,0,0,0,0,0,0,0,0,0,0,0,0,0,0,0,0,0,0,0,0,0,0,0,0,0,0,0,0,0,0,0,0,0,0,0,0,0,0,0,0],"id":10,"left_children":[1,3,5,7,9,11,13,15,17,19,21,23,25,27,-1,-1,29,31,33,35,37,39,41,43,45,47,-1,49,51,-1,53,55,57,59,-1,61,-1,63,65,67,-1,69,71,73,75,77,79,-1,-1,81,-1,83,-1,-1,-1,-1,-1,-1,-1,-1,-1,-1,-1,-1,-1,-1,-1,-1,-1,-1,-1,-1,-1,-1,-1,-1,-1,-1,-1,-1,-1,-1,-1,-1,-1],"loss_changes":[5.1970764E1,3.2219772E1,2.000922E1,3.265948E1,8.176822E0,1.1771367E1,6.1138573E0,1.7584587E1,2.8690182E1,1.002845E1,1.636683E1,1.4875977E1,7.4147797E-1,3.3773422E-1,0E0,0E0,2.3955717E0,2.42235E1,5.24887E1,6.303175E0,7.8984528E0,1.0110147E1,2.1149393E1,2.4751179E1,8.404548E0,1.0659441E0,0E0,3.6635942E0,3.902092E-1,0E0,9.044757E-1,5.710959E1,2.3917782E1,6.2708458E1,0E0,4.578157E0,0E0,2.7155228E0,9.16284E0,1.6280949E1,0E0,8.520557E0,6.878202E0,1.4706945E1,1.80155E1,1.0061888E1,2.9418564E-1,0E0,0E0,2.0292873E0,0E0,9.134382E-1,0E0,0E0,0E0,0E0,0E0,0E0,0E0,0E0,0E0,0E0,0E0,0E0,0E0,0E0,0E0,0E0,0E0,0E0,0E0,0E0,0E0,0E0,0E0,0E0,0E0,0E0,0E0,0E0,0E0,0E0,0E0,0E0,0E0],"parents":[2147483647,0,0,1,1,2,2,3,3,4,4,5,5,6,6,7,7,8,8,9,9,10,10,11,11,12,12,13,13,16,16,17,17,18,18,19,19,20,20,21,21,22,22,23,23,24,24,25,25,27,27,28,28,30,30,31,31,32,32,33,33,35,35,37,37,38,38,39,39,41,41,42,42,43,43,44,44,45,45,46,46,49,49,51,51],"right_children":[2,4,6,8,10,12,14,16,18,20,22,24,26,28,-1,-1,30,32,34,36,38,40,42,44,46,48,-1,50,52,-1,54,56,58,60,-1,62,-1,64,66,68,-1,70,72,74,76,78,80,-1,-1,82,-1,84,-1,-1,-1,-1,-1,-1,-1,-1,-1,-1,-1,-1,-1,-1,-1,-1,-1,-1,-1,-1,-1,-1,-1,-1,-1,-1,-1,-1,-1,-1,-1,-1,-1],"split_conditions":[1.3957145E0,1.4932846E0,1.1476495E0,-5.4295456E-1,-4.617266E-1,2.7399576E0,1E0,4.0341563E0,-5.509749E-1,1.5561273E0,-8.897184E-2,-1.0195285E0,-1.6219544E0,1E0,-2.4438567E-1,-3.158059E-1,1E0,-5.621309E-1,-1.0821066E0,-7.0240927E-1,1E0,-1.09035164E-1,1.7917875E0,3.9750347E-1,2.2584376E0,4.680587E-1,2.787305E-1,1.4775739E0,1.5160946E0,-1.6657534E-1,5.116292E0,9.474598E-1,-4.5483994E-1,-1.1122017E0,-3.089317E-1,-7.524053E-1,-4.161264E-1,7.3766226E-1,8.13878E-1,-1.9932015E-1,3.2598993E-1,1.2753346E0,1E0,-7.0240927E-1,4.0065783E-1,-9.637483E-1,-9.5817024E-1,-9.5763125E-2,1.9484575E-1,-1.3151635E0,2.643955E-1,1.5718379E0,2.9786333E-1,2.5632739E-2,2.56114E-1,-2.8932798E-1,1.4297158E-1,4.9155334E-1,-3.0637744E-1,-1.2165979E-1,5.5830306E-1,-2.607218E-1,2.548448E-1,2.0724948E-1,1.0500988E-2,1.2619083E-1,-4.9042E-1,3.599047E-2,-6.409963E-1,-4.9087888E-1,1.1623351E-1,-4.491519E-1,1.2025737E-1,-8.102429E-2,-6.489519E-1,2.8772977E-1,-1.3435514E-1,2.7389643E-1,-5.6490097E-2,1.0269085E-1,3.143164E-1,1.2254629E-1,-3.0673435E-1,-3.289765E-2,2.23861E-1],"split_indices":[3,4,4,1,2,3,5,2,2,4,3,2,2,6,0,0,6,2,3,0,7,3,4,0,3,1,0,4,3,0,2,0,4,3,0,0,0,1,3,3,0,3,6,0,1,2,2,0,0,2,0,4,0,0,0,0,0,0,0,0,0,0,0,0,0,0,0,0,0,0,0,0,0,0,0,0,0,0,0,0,0,0,0,0,0],"split_type":[0,0,0,0,0,0,0,0,0,0,0,0,0,0,0,0,0,0,0,0,0,0,0,0,0,0,0,0,0,0,0,0,0,0,0,0,0,0,0,0,0,0,0,0,0,0,0,0,0,0,0,0,0,0,0,0,0,0,0,0,0,0,0,0,0,0,0,0,0,0,0,0,0,0,0,0,0,0,0,0,0,0,0,0,0],"sum_hessian":[8.0561304E2,6.115626E2,1.9405043E2,3.6205072E2,2.4951189E2,1.2683163E2,6.72188E1,8.3518654E1,2.7853207E2,7.839541E1,1.7111649E2,1.0571488E2,2.1116743E1,6.5840126E1,1.3786815E0,7.498742E1,8.531237E0,1.374291E2,1.41103E2,8.479149E0,6.991626E1,1.3814398E2,3.2972507E1,5.1649242E1,5.406564E1,2.7889788E0,1.8327765E1,1.1628487E1,5.421164E1,1.284595E0,7.2466416E0,1.1785251E2,1.9576574E1,6.0881485E1,8.0221504E1,4.5522046E0,3.9269438E0,6.2672916E1,7.2433405E0,1.2867969E2,9.464288E0,1.678736E1,1.618515E1,1.6238438E1,3.5410805E1,3.7615562E1,1.6450075E1,1.2154903E0,1.5734885E0,2.2032099E0,9.425277E0,4.160329E0,5.0051308E1,2.4054372E0,4.8412046E0,4.175781E1,7.60947E1,1.6086962E1,3.4896126E0,4.5289436E1,1.5592047E1,1.5717874E0,2.9804173E0,5.5440308E1,7.2326093E0,4.588216E0,2.655125E0,1.26399414E2,2.2802756E0,1.4781698E1,2.0056612E0,1.1792645E0,1.5005885E1,7.902379E0,8.33606E0,1.47019005E1,2.0708904E1,1.0869363E1,2.67462E1,1.914162E0,1.4535913E1,1.1065686E0,1.0966413E0,1.5583357E0,2.6019936E0],"tree_param":{"num_deleted":"0","num_feature":"8","num_nodes":"85","size_leaf_vector":"1"}},{"base_weights":[-2.2351818E-2,-1.2914273E-1,4.346037E-1,-3.0320913E-1,1.1233894E-1,2.2560573E-1,8.7673223E-1,-8.781818E-1,-1.5897392E-1,3.3060428E-2,7.6928055E-1,-3.3831256E-3,6.018271E-1,9.1209394E-1,-5.2236367E-2,-3.1232274E-1,3.5746402E-1,-7.513313E-2,-1.0151331E0,-9.458247E-3,1.004337E0,-5.3247863E-1,9.256273E-1,-4.693968E-1,4.6949512E-1,3.548298E-1,2.7158934E-1,5.793708E-1,2.91994E-1,-1.3007258E-1,5.730654E-1,1.730562E-1,-3.8110217E-1,4.4123933E-2,-1.1260699E0,3.2395244E-2,-1.1686242E0,1.4315103E-1,3.4383017E-1,-3.826211E-1,1.6396107E-1,1.0429718E-2,2.9351223E-1,-4.3596223E-1,-1.5100746E-2,-2.6898926E-1,6.1545783E-1,-4.8919645E-1,5.979577E-1,-1.0491141E-1,2.577738E-1,2.0355128E-2,2.429889E-1,7.7062234E-2,-2.9866263E-1,6.402165E-2,-3.0404368E-1,-6.108242E-1,-2.6766458E-1,-2.7037798E-3,2.7249652E-1,-5.5554754E-1,2.0272732E-1,2.6425034E-1,-2.5312167E-1,1.0615715E-1,2.9846245E-1,-5.22887E-1,8.775261E-2,2.0385514E-1,-4.2951554E-2],"categories":[],"categories_nodes":[],"categories_segments":[],"categories_sizes":[],"default_left":[0,0,0,0,0,0,0,0,0,0,0,0,0,0,0,0,0,0,0,0,0,0,0,0,0,0,0,0,0,0,0,0,0,0,0,0,0,0,0,0,0,0,0,0,0,0,0,0,0,0,0,0,0,0,0,0,0,0,0,0,0,0,0,0,0,0,0,0,0,0,0],"id":11,"left_children":[1,3,5,7,9,11,13,15,17,19,21,23,25,27,-1,-1,29,31,33,35,37,39,41,43,45,47,-1,49,-1,-1,51,53,55,-1,57,59,61,-1,-1,-1,-1,-1,-1,-1,63,-1,65,67,69,-1,-1,-1,-1,-1,-1,-1,-1,-1,-1,-1,-1,-1,-1,-1,-1,-1,-1,-1,-1,-1,-1],"loss_changes":[3.4892784E1,2.4389482E1,1.23193245E1,2.780683E1,1.2653308E1,8.042225E0,1.7616577E0,1.3930309E1,1.934934E1,9.023541E0,5.819064E0,1.3224306E1,2.3260193E0,2.893448E-1,0E0,0E0,1.7135024E0,1.886564E1,3.267416E0,1.0231267E1,1.3794327E-1,3.4553547E0,1.0810013E0,1.3484991E1,6.4919252E0,4.6254044E0,0E0,2.6356196E0,0E0,0E0,8.0449605E-1,1.3711708E1,4.2017982E1,0E0,2.8815517E0,7.3985686E0,1.0511578E1,0E0,0E0,0E0,0E0,0E0,0E0,0E0,1.6841984E1,0E0,2.3781528E0,5.676828E0,1.1153636E0,0E0,0E0,0E0,0E0,0E0,0E0,0E0,0E0,0E0,0E0,0E0,0E0,0E0,0E0,0E0,0E0,0E0,0E0,0E0,0E0,0E0,0E0],"parents":[2147483647,0,0,1,1,2,2,3,3,4,4,5,5,6,6,7,7,8,8,9,9,10,10,11,11,12,12,13,13,16,16,17,17,18,18,19,19,20,20,21,21,22,22,23,23,24,24,25,25,27,27,30,30,31,31,32,32,34,34,35,35,36,36,44,44,46,46,47,47,48,48],"right_children":[2,4,6,8,10,12,14,16,18,20,22,24,26,28,-1,-1,30,32,34,36,38,40,42,44,46,48,-1,50,-1,-1,52,54,56,-1,58,60,62,-1,-1,-1,-1,-1,-1,-1,64,-1,66,68,70,-1,-1,-1,-1,-1,-1,-1,-1,-1,-1,-1,-1,-1,-1,-1,-1,-1,-1,-1,-1,-1,-1],"split_conditions":[1.6866328E0,1.4932846E0,1.1319388E0,-5.4295456E-1,1.1348913E0,2.4089127E0,1E0,4.0341563E0,1.1476495E0,2.153081E0,1E0,-9.5817024E-1,-1.2816954E0,1E0,-5.2236367E-2,-3.1232274E-1,1E0,-5.509749E-1,-1.2314931E0,1.4116712E0,2.0473726E0,1.7446555E0,-1.2523656E0,3.9750347E-1,1.8270761E0,1E0,2.7158934E-1,1.4775739E0,2.91994E-1,-1.3007258E-1,5.116292E0,1.4116712E0,-1.0821066E0,4.4123933E-2,-9.637483E-1,4.0341563E0,2.2473972E0,1.4315103E-1,3.4383017E-1,-3.826211E-1,1.6396107E-1,1.0429718E-2,2.9351223E-1,-4.3596223E-1,4.0065783E-1,-2.6898926E-1,2.2584376E0,2.7399576E0,7.2346115E-1,-1.0491141E-1,2.577738E-1,2.0355128E-2,2.429889E-1,7.7062234E-2,-2.9866263E-1,6.402165E-2,-3.0404368E-1,-6.108242E-1,-2.6766458E-1,-2.7037798E-3,2.7249652E-1,-5.5554754E-1,2.0272732E-1,2.6425034E-1,-2.5312167E-1,1.0615715E-1,2.9846245E-1,-5.22887E-1,8.775261E-2,2.0385514E-1,-4.2951554E-2],"split_indices":[3,4,4,1,3,3,5,2,4,1,6,2,2,6,0,0,6,2,2,1,0,4,0,0,3,6,0,4,0,0,2,1,3,0,2,2,4,0,0,0,0,0,0,0,1,0,3,3,4,0,0,0,0,0,0,0,0,0,0,0,0,0,0,0,0,0,0,0,0,0,0],"split_type":[0,0,0,0,0,0,0,0,0,0,0,0,0,0,0,0,0,0,0,0,0,0,0,0,0,0,0,0,0,0,0,0,0,0,0,0,0,0,0,0,0,0,0,0,0,0,0,0,0,0,0,0,0,0,0,0,0,0,0,0,0,0,0,0,0,0,0,0,0,0,0],"sum_hessian":[7.1288495E2,5.784241E2,1.3446085E2,3.3598303E2,2.4244107E2,9.232724E1,4.213361E1,6.635999E1,2.6962302E2,2.1727147E2,2.5169598E1,5.8010124E1,3.431712E1,4.0889694E1,1.2439134E0,5.8769882E1,7.5901055E0,2.4656546E2,2.3057568E1,2.0910782E2,8.163658E0,2.440874E0,2.2728724E1,2.9220837E1,2.8789288E1,2.0114775E1,1.4202344E1,7.9804306E0,3.2909264E1,1.409106E0,6.1809998E0,1.3637674E2,1.1018872E2,1.9807476E0,2.107682E1,2.0275894E2,6.348875E0,2.6553483E0,5.50831E0,1.3377786E0,1.1030957E0,1.3632553E0,2.1365469E1,8.536223E0,2.0684614E1,2.2826004E0,2.6506687E1,4.2720666E0,1.5842709E1,1.789729E0,6.1907015E0,2.3837516E0,3.7972481E0,1.279777E2,8.399037E0,5.71364E1,5.3052326E1,2.7334404E0,1.834338E1,1.9455157E2,8.207365E0,4.6298413E0,1.7190337E0,9.908459E0,1.0776155E1,1.6833172E1,9.673514E0,1.1684035E0,3.1036632E0,1.4346992E1,1.4957166E0],"tree_param":{"num_deleted":"0","num_feature":"8","num_nodes":"71","size_leaf_vector":"1"}},{"base_weights":[-2.1200927E-2,-9.6109115E-2,4.480664E-1,-1.3816151E-1,6.33066E-1,2.6769838E-1,2.869524E-1,-6.608416E-1,-7.283322E-2,4.752038E-1,2.617888E-1,8.6524785E-2,6.7335474E-1,-8.806735E-1,5.471805E-1,1.0674027E0,-1.3051866E-1,6.377118E-1,1.7013736E-2,-5.014192E-1,5.047085E-1,7.867505E-1,-4.308117E-2,-1.1675762E0,-3.236134E-1,2.8553802E-1,-2.1691851E-1,1.2923506E0,-2.868608E-1,-3.3583197E-1,1.5569213E-1,-1.7659292E-2,7.073213E-1,-3.6663377E-1,5.5077624E-1,-4.0485972E-1,-4.0504377E-2,2.8156105E-1,2.5291914E-1,-8.579256E-3,8.375357E-1,-3.0584764E-1,-4.6160856E-1,-2.659326E-1,2.5800276E-1,-3.8763812E-1,1.7768279E-1,-1.8667623E-1,4.2946434E-1,-2.0470889E-1,-1.5960738E-2,1.4151722E-1,-3.1899612E-2,7.559129E-2,2.8556734E-1,2.1555485E-1,1.6255625E-2,2.8017384E-1,-2.0928927E-1,-5.877017E-3,2.6355252E-1,2.6655152E-1,1.01297945E-2],"categories":[],"categories_nodes":[],"categories_segments":[],"categories_sizes":[],"default_left":[0,0,0,0,0,0,0,0,0,0,0,0,0,0,0,0,0,0,0,0,0,0,0,0,0,0,0,0,0,0,0,0,0,0,0,0,0,0,0,0,0,0,0,0,0,0,0,0,0,0,0,0,0,0,0,0,0,0,0,0,0,0,0],"id":12,"left_children":[1,3,5,7,9,11,-1,13,15,17,-1,19,21,23,25,27,29,31,33,35,37,39,-1,41,43,-1,45,47,-1,49,51,-1,53,-1,55,-1,57,59,-1,-1,61,-1,-1,-1,-1,-1,-1,-1,-1,-1,-1,-1,-1,-1,-1,-1,-1,-1,-1,-1,-1,-1,-1],"loss_changes":[2.2878563E1,1.729041E1,7.9608574E0,1.8091908E1,7.4897385E-1,4.9045444E0,0E0,1.612316E1,3.1274157E1,1.5336909E0,0E0,1.2012053E1,2.0306377E0,7.647457E0,3.200662E0,1.1661381E1,2.6580822E1,7.827792E-1,4.944644E0,7.912042E0,1.9104099E0,7.8301525E-1,0E0,2.3171997E-1,1.3055663E1,0E0,4.391084E0,6.4973335E0,0E0,2.574079E1,1.5722197E1,0E0,1.3162727E0,0E0,3.9448833E-1,0E0,9.766447E0,3.3686612E0,0E0,0E0,6.7831516E-1,0E0,0E0,0E0,0E0,0E0,0E0,0E0,0E0,0E0,0E0,0E0,0E0,0E0,0E0,0E0,0E0,0E0,0E0,0E0,0E0,0E0,0E0],"parents":[2147483647,0,0,1,1,2,2,3,3,4,4,5,5,7,7,8,8,9,9,11,11,12,12,13,13,14,14,15,15,16,16,17,17,18,18,19,19,20,20,21,21,23,23,24,24,26,26,27,27,29,29,30,30,32,32,34,34,36,36,37,37,40,40],"right_children":[2,4,6,8,10,12,-1,14,16,18,-1,20,22,24,26,28,30,32,34,36,38,40,-1,42,44,-1,46,48,-1,50,52,-1,54,-1,56,-1,58,60,-1,-1,62,-1,-1,-1,-1,-1,-1,-1,-1,-1,-1,-1,-1,-1,-1,-1,-1,-1,-1,-1,-1,-1,-1],"split_conditions":[1.9474561E0,4.0341563E0,1.1319388E0,-1.1122017E0,1E0,-9.5817024E-1,2.869524E-1,1.8232088E0,-1.0821066E0,2.4751537E-1,2.617888E-1,2.4089127E0,5.506437E-1,2.0706937E0,1.8546302E0,2.975114E-1,7.9747176E-1,-7.8476423E-1,4.680587E-1,3.9750347E-1,-1.2816954E0,-1.3023617E0,-4.308117E-2,1.5247059E0,-1.6940382E0,2.8553802E-1,1.0072658E0,-3.5243705E-1,-2.868608E-1,1.3518884E0,6.702614E-1,-1.7659292E-2,-7.524053E-1,-3.6663377E-1,9.974559E-1,-4.0485972E-1,1.9845517E-1,9.974559E-1,2.5291914E-1,-8.579256E-3,8.72464E-1,-3.0584764E-1,-4.6160856E-1,-2.659326E-1,2.5800276E-1,-3.8763812E-1,1.7768279E-1,-1.8667623E-1,4.2946434E-1,-2.0470889E-1,-1.5960738E-2,1.4151722E-1,-3.1899612E-2,7.559129E-2,2.8556734E-1,2.1555485E-1,1.6255625E-2,2.8017384E-1,-2.0928927E-1,-5.877017E-3,2.6355252E-1,2.6655152E-1,1.01297945E-2],"split_indices":[3,2,4,3,7,2,0,4,3,0,0,3,4,2,4,0,0,4,1,0,2,0,0,4,3,0,1,0,0,4,1,0,0,0,0,0,1,0,0,0,1,0,0,0,0,0,0,0,0,0,0,0,0,0,0,0,0,0,0,0,0,0,0],"split_type":[0,0,0,0,0,0,0,0,0,0,0,0,0,0,0,0,0,0,0,0,0,0,0,0,0,0,0,0,0,0,0,0,0,0,0,0,0,0,0,0,0,0,0,0,0,0,0,0,0,0,0,0,0,0,0,0,0,0,0,0,0,0,0],"sum_hessian":[6.4862225E2,5.600222E2,8.860001E1,5.3025244E2,2.9769768E1,6.6526474E1,2.2073545E1,5.7898796E1,4.7235367E2,1.9743345E1,1.0026422E1,4.6826286E1,1.9700184E1,4.9213974E1,8.68482E0,2.1903116E1,4.5045056E2,1.4285017E1,5.4583287E0,1.9380001E1,2.7446285E1,1.7331509E1,2.368677E0,3.1760437E1,1.7453539E1,5.5175E0,3.1673203E0,2.0037113E1,1.8660029E0,2.6219302E2,1.8825754E2,1.3118451E0,1.2973172E1,1.255071E0,4.203258E0,6.1449504E0,1.3235051E1,1.7642855E1,9.80343E0,1.0418386E0,1.6289669E1,2.5380268E1,6.3801684E0,1.1998952E1,5.454586E0,1.103822E0,2.0634983E0,1.1228199E0,1.8914293E1,1.1714619E2,1.4504683E2,8.497155E1,1.0328599E2,5.2425804E0,7.7305913E0,2.8078997E0,1.3953581E0,5.1609507E0,8.0741005E0,1.2369704E1,5.2731504E0,1.5219156E1,1.0705132E0],"tree_param":{"num_deleted":"0","num_feature":"8","num_nodes":"63","size_leaf_vector":"1"}},{"base_weights":[-1.5076549E-2,-2.1223594E-1,1.6132776E-1,-1.2667525E-1,-1.0544063E0,8.876949E-2,5.8181244E-1,-5.4160565E-1,1.0409042E-2,-3.4647596E-1,-3.967248E-1,1.8441974E-1,-2.9329276E-1,8.786814E-1,-1.8602294E-1,5.331013E-1,-3.007974E-1,3.839335E-1,-1.0820575E-1,1.6287008E-1,-2.4491219E-1,2.6220372E-1,-5.1757395E-1,-1.0850025E0,1.0657598E-1,9.371592E-1,1.9836177E-1,-6.564362E-1,5.120154E-1,-1.5640052E-1,7.3497105E-1,6.294547E-1,-5.766652E-1,2.725238E-1,-3.8122398E-1,1.4394033E-1,1.1594884E0,-3.493144E-1,1.7604268E-1,-4.1343573E-1,3.5192388E-1,-9.4570655E-1,4.0294123E-1,7.839659E-1,3.939901E-1,-1.785945E-1,2.1020149E-1,-3.102045E-1,2.5247175E-1,-9.101048E-2,2.3374103E-1,1.8129832E-1,-1.7985773E-1,2.6595764E-2,2.7338567E-1,-2.903164E-1,2.1451189E-1,-3.8101086E-1,1.9975345E-1,-6.724239E-2,2.3700559E-1,-2.2030331E-1,1.7206389E-1,-1.2472692E-2,1.7048146E-1,-2.440881E-1,4.0931675E-1,1.6883092E-1,-3.3717746E-1,-5.8429185E-2,1.9735816E-1,-4.1056934E-1,1.8936573E-1,-5.0260548E-2,2.0727006E-1,2.900262E-1,-1.7573062E-1,1.6944048E-1,-5.896905E-2],"categories":[],"categories_nodes":[],"categories_segments":[],"categories_sizes":[],"default_left":[0,0,0,0,0,0,0,0,0,0,0,0,0,0,0,0,0,0,0,0,0,0,0,0,0,0,0,0,0,0,0,0,0,0,0,0,0,0,0,0,0,0,0,0,0,0,0,0,0,0,0,0,0,0,0,0,0,0,0,0,0,0,0,0,0,0,0,0,0,0,0,0,0,0,0,0,0,0,0],"id":13,"left_children":[1,3,5,7,9,11,13,15,17,-1,19,21,23,25,27,29,-1,31,33,-1,-1,35,37,39,41,43,45,47,49,51,53,55,57,59,61,63,65,-1,67,-1,69,71,73,75,-1,-1,-1,-1,77,-1,-1,-1,-1,-1,-1,-1,-1,-1,-1,-1,-1,-1,-1,-1,-1,-1,-1,-1,-1,-1,-1,-1,-1,-1,-1,-1,-1,-1,-1],"loss_changes":[2.0869118E1,2.0281254E1,9.611842E0,1.4699201E1,1.2600727E0,9.968697E0,1.0747488E1,3.233027E1,8.687949E0,0E0,2.4025753E0,1.2017269E1,1.7435074E1,1.1532288E0,4.8583136E0,2.8872285E0,0E0,1.1508106E1,1.55813055E1,0E0,0E0,2.069059E1,1.0093703E1,8.255161E0,1.2000858E1,7.4100304E-1,1.985013E0,3.2349417E0,1.566351E0,2.1608033E0,1.6948719E0,5.901967E0,9.582652E0,1.6309326E1,2.979774E1,1.3784415E1,1.0306749E1,0E0,6.4162836E0,0E0,7.8412616E-1,6.5228467E0,5.006685E0,6.654258E0,0E0,0E0,0E0,0E0,5.804343E-1,0E0,0E0,0E0,0E0,0E0,0E0,0E0,0E0,0E0,0E0,0E0,0E0,0E0,0E0,0E0,0E0,0E0,0E0,0E0,0E0,0E0,0E0,0E0,0E0,0E0,0E0,0E0,0E0,0E0,0E0],"parents":[2147483647,0,0,1,1,2,2,3,3,4,4,5,5,6,6,7,7,8,8,10,10,11,11,12,12,13,13,14,14,15,15,17,17,18,18,21,21,22,22,23,23,24,24,25,25,26,26,27,27,28,28,29,29,30,30,31,31,32,32,33,33,34,34,35,35,36,36,38,38,40,40,41,41,42,42,43,43,48,48],"right_children":[2,4,6,8,10,12,14,16,18,-1,20,22,24,26,28,30,-1,32,34,-1,-1,36,38,40,42,44,46,48,50,52,54,56,58,60,62,64,66,-1,68,-1,70,72,74,76,-1,-1,-1,-1,78,-1,-1,-1,-1,-1,-1,-1,-1,-1,-1,-1,-1,-1,-1,-1,-1,-1,-1,-1,-1,-1,-1,-1,-1,-1,-1,-1,-1,-1,-1],"split_conditions":[4.3267474E-1,1.4175645E-1,1.4974163E0,5.8206505E-1,1.3474281E0,7.3766226E-1,1.5464729E0,-2.4263496E0,-9.4735986E-1,-3.4647596E-1,-8.968121E-1,-5.3424084E-1,1.7358732E-1,-6.513792E-1,1.3518884E0,-3.4075192E-1,-3.007974E-1,4.3075633E-1,-9.316317E-1,1.6287008E-1,-2.4491219E-1,-5.621309E-1,8.8409966E-1,2.4089127E0,1.0245429E0,-6.5695727E-1,1.8232088E0,2.158121E0,1.9508781E0,-1.2843643E0,-1.3503487E0,-1.5523418E0,4.0341563E0,-1.1122017E0,1.2094685E0,9.474598E-1,-2.0595014E-1,-3.493144E-1,-2.5244498E-1,-4.1343573E-1,2.7399576E0,1.870341E0,-9.9163836E-1,-9.1354614E-1,3.939901E-1,-1.785945E-1,2.1020149E-1,-3.102045E-1,1.6812747E0,-9.101048E-2,2.3374103E-1,1.8129832E-1,-1.7985773E-1,2.6595764E-2,2.7338567E-1,-2.903164E-1,2.1451189E-1,-3.8101086E-1,1.9975345E-1,-6.724239E-2,2.3700559E-1,-2.2030331E-1,1.7206389E-1,-1.2472692E-2,1.7048146E-1,-2.440881E-1,4.0931675E-1,1.6883092E-1,-3.3717746E-1,-5.8429185E-2,1.9735816E-1,-4.1056934E-1,1.8936573E-1,-5.0260548E-2,2.0727006E-1,2.900262E-1,-1.7573062E-1,1.6944048E-1,-5.896905E-2],"split_indices":[3,3,0,4,0,1,1,3,1,0,2,2,4,2,4,1,0,2,3,0,0,2,3,3,3,2,4,3,1,1,4,0,2,3,1,0,1,0,0,0,3,4,2,2,0,0,0,0,1,0,0,0,0,0,0,0,0,0,0,0,0,0,0,0,0,0,0,0,0,0,0,0,0,0,0,0,0,0,0],"split_type":[0,0,0,0,0,0,0,0,0,0,0,0,0,0,0,0,0,0,0,0,0,0,0,0,0,0,0,0,0,0,0,0,0,0,0,0,0,0,0,0,0,0,0,0,0,0,0,0,0,0,0,0,0,0,0,0,0,0,0,0,0,0,0,0,0,0,0,0,0,0,0,0,0,0,0,0,0,0,0],"sum_hessian":[5.9805164E2,2.8231613E2,3.1573553E2,2.5732364E2,2.49925E1,2.7030344E2,4.543209E1,6.3169525E1,1.9415411E2,2.1023438E1,3.9690635E0,2.165955E2,5.3707928E1,3.266026E1,1.27718315E1,1.8917292E1,4.425223E1,4.6255672E1,1.4789845E2,1.134696E0,2.8343675E0,1.9555377E2,2.1041733E1,1.7448273E1,3.6259655E1,2.9727468E1,2.9327922E0,7.665555E0,5.1062765E0,4.335227E0,1.4582065E1,3.7114292E1,9.141381E0,6.1766125E1,8.6132324E1,1.7380627E2,2.17475E1,1.0537063E1,1.050467E1,1.45260515E1,2.9222217E0,7.4865804E0,2.8773075E1,2.3315752E1,6.411717E0,1.0649533E0,1.8678389E0,5.318498E0,2.347057E0,1.2265519E0,3.8797247E0,1.4618441E0,2.8733828E0,3.4474633E0,1.1134602E1,1.363408E0,3.575088E1,5.8530107E0,3.2883701E0,3.1806623E1,2.99595E1,6.3045795E1,2.3086527E1,1.215619E2,5.224437E1,1.7664477E0,1.9981052E1,8.533215E0,1.971455E0,1.1789331E0,1.7432885E0,6.0077214E0,1.4788592E0,9.792103E0,1.8980972E1,2.083021E1,2.485542E0,1.2321882E0,1.1148689E0],"tree_param":{"num_deleted":"0","num_feature":"8","num_nodes":"79","size_leaf_vector":"1"}},{"base_weights":[-1.4252328E-2,-8.829699E-2,3.321741E-1,-2.5296906E-1,8.9206114E-2,1.4754473E-1,8.362194E-1,-8.039621E-1,-1.448948E-1,3.4441993E-2,8.039425E-1,3.2724744E-1,-2.2015724E-1,3.2972077E-1,2.9104558E-1,-3.0313426E-1,2.204716E-1,-6.844512E-2,-9.1437757E-1,-5.3994562E-2,4.0681782E-1,-4.863223E-2,8.9493316E-1,6.013449E-1,1.0204763E-1,-9.676264E-1,1.490842E-1,-1.8592231E-1,2.4568862E-1,1.9336174E-1,-1.3669497E-1,1.0544685E-1,-3.64247E-1,-1.4185981E-1,-1.1886029E0,1.2005518E-1,-4.984147E-1,-3.051592E-1,5.10142E-1,5.8577742E-2,2.8594208E-1,2.4452975E-1,8.403684E-1,-3.8485724E-1,2.39294E-1,-1.3672078E0,2.3453943E-2,-1.5514067E-1,2.5676677E-1,-1.6721042E-1,1.0262792E-1,-1.7508555E-2,1.3639775E-1,-2.4015181E-1,8.1787825E-2,-2.2621797E-1,1.3451487E-1,-4.067782E-1,-9.53485E-2,7.29663E-2,-1.5269619E-1,-3.837738E-1,2.717861E-2,1.8577117E-1,-1.3645242E-1,-2.4299596E-1,1.7228033E-1,7.967061E-2,2.8914917E-1,-3.628588E-2,1.7107314E-1,-4.6225032E-1,-9.800448E-2,-1.4263798E-1,1.6076718E-1,5.9190284E-2,-4.4484678E-1],"categories":[],"categories_nodes":[],"categories_segments":[],"categories_sizes":[],"default_left":[0,0,0,0,0,0,0,0,0,0,0,0,0,0,0,0,0,0,0,0,0,0,0,0,0,0,0,0,0,0,0,0,0,0,0,0,0,0,0,0,0,0,0,0,0,0,0,0,0,0,0,0,0,0,0,0,0,0,0,0,0,0,0,0,0,0,0,0,0,0,0,0,0,0,0,0,0],"id":14,"left_children":[1,3,5,7,9,11,13,15,17,19,21,23,25,27,-1,-1,29,31,33,35,37,-1,39,41,43,45,47,-1,-1,-1,49,51,53,55,57,59,61,-1,63,-1,-1,65,67,-1,69,71,73,75,-1,-1,-1,-1,-1,-1,-1,-1,-1,-1,-1,-1,-1,-1,-1,-1,-1,-1,-1,-1,-1,-1,-1,-1,-1,-1,-1,-1,-1],"loss_changes":[1.4037978E1,1.3197671E1,8.8460865E0,1.3822715E1,8.491913E0,4.81353E0,1.4184494E0,8.295885E0,1.1521435E1,6.714123E0,1.5027761E0,2.938714E0,6.810753E0,3.7005358E0,0E0,0E0,1.1821302E0,9.307587E0,3.58424E0,1.2830276E1,6.274376E0,0E0,3.950281E-1,1.6466904E0,5.607285E0,3.2477794E0,3.795592E0,0E0,0E0,0E0,1.1465449E0,6.562818E0,1.8816898E1,2.4254408E0,1.4542313E0,9.377685E0,2.1573647E1,0E0,4.191208E0,0E0,0E0,3.9848123E0,6.378355E-1,0E0,3.1943073E0,5.4517365E-1,1.1026474E0,6.2610188E0,0E0,0E0,0E0,0E0,0E0,0E0,0E0,0E0,0E0,0E0,0E0,0E0,0E0,0E0,0E0,0E0,0E0,0E0,0E0,0E0,0E0,0E0,0E0,0E0,0E0,0E0,0E0,0E0,0E0],"parents":[2147483647,0,0,1,1,2,2,3,3,4,4,5,5,6,6,7,7,8,8,9,9,10,10,11,11,12,12,13,13,16,16,17,17,18,18,19,19,20,20,22,22,23,23,24,24,25,25,26,26,30,30,31,31,32,32,33,33,34,34,35,35,36,36,38,38,41,41,42,42,44,44,45,45,46,46,47,47],"right_children":[2,4,6,8,10,12,14,16,18,20,22,24,26,28,-1,-1,30,32,34,36,38,-1,40,42,44,46,48,-1,-1,-1,50,52,54,56,58,60,62,-1,64,-1,-1,66,68,-1,70,72,74,76,-1,-1,-1,-1,-1,-1,-1,-1,-1,-1,-1,-1,-1,-1,-1,-1,-1,-1,-1,-1,-1,-1,-1,-1,-1,-1,-1,-1,-1],"split_conditions":[1.6866328E0,1.4932846E0,1.2576243E0,-5.4295456E-1,1.2452396E0,1.89298E-1,1E0,4.0341563E0,1.1476495E0,1.8389195E0,1E0,-2.7335104E-1,6.134864E-1,2.0377412E0,2.9104558E-1,-3.0313426E-1,-1.2843643E0,6.702614E-1,-3.7474893E-3,1.6301146E-1,-1.1523736E0,-4.863223E-2,1.5404166E0,-1.1031988E0,1.3105428E-1,8.050631E-1,-5.6770897E-1,-1.8592231E-1,2.4568862E-1,1.9336174E-1,-8.79959E-1,9.474598E-1,1.4974163E0,-7.114837E-2,1.5474123E0,6.834663E-1,8.100616E-1,-3.051592E-1,1.3974241E0,5.8577742E-2,2.8594208E-1,2.4089127E0,2.158121E0,-3.8485724E-1,2.2584376E0,-6.7369133E-1,-1.0306845E0,-9.8048234E-1,2.5676677E-1,-1.6721042E-1,1.0262792E-1,-1.7508555E-2,1.3639775E-1,-2.4015181E-1,8.1787825E-2,-2.2621797E-1,1.3451487E-1,-4.067782E-1,-9.53485E-2,7.29663E-2,-1.5269619E-1,-3.837738E-1,2.717861E-2,1.8577117E-1,-1.3645242E-1,-2.4299596E-1,1.7228033E-1,7.967061E-2,2.8914917E-1,-3.628588E-2,1.7107314E-1,-4.6225032E-1,-9.800448E-2,-1.4263798E-1,1.6076718E-1,5.9190284E-2,-4.4484678E-1],"split_indices":[3,4,4,1,3,4,6,2,4,4,6,1,4,3,0,0,1,1,1,2,0,0,4,2,1,1,2,0,0,0,1,0,0,1,0,3,2,0,0,0,0,3,3,0,3,2,2,2,0,0,0,0,0,0,0,0,0,0,0,0,0,0,0,0,0,0,0,0,0,0,0,0,0,0,0,0,0],"split_type":[0,0,0,0,0,0,0,0,0,0,0,0,0,0,0,0,0,0,0,0,0,0,0,0,0,0,0,0,0,0,0,0,0,0,0,0,0,0,0,0,0,0,0,0,0,0,0,0,0,0,0,0,0,0,0,0,0,0,0,0,0,0,0,0,0,0,0,0,0,0,0,0,0,0,0,0,0],"sum_hessian":[5.4512427E2,4.497422E2,9.5382095E1,2.3308286E2,2.1665933E2,7.07569E1,2.4625193E1,3.71652E1,1.9591766E2,2.0221362E2,1.4445706E1,4.7602634E1,2.3154264E1,5.8738036E0,1.8751389E1,3.0942139E1,6.223063E0,1.7920247E2,1.6715183E1,1.6409682E2,3.8116806E1,1.1762153E0,1.3269491E1,2.0717037E1,2.6885597E1,7.120134E0,1.603413E1,1.9067224E0,3.9670813E0,2.4772315E0,3.7458315E0,1.1326268E2,6.59398E1,4.776541E0,1.1938642E1,1.1844117E2,4.565565E1,1.9802512E0,3.6136555E1,1.3535691E0,1.1915922E1,9.12229E0,1.1594748E1,1.6715417E0,2.5214056E1,4.8038263E0,2.3163075E0,1.1755012E1,4.279119E0,1.9065629E0,1.8392686E0,7.7664604E1,3.559808E1,3.8980892E1,2.69589E1,2.2084224E0,2.5681188E0,9.546983E0,2.3916585E0,9.956065E1,1.888052E1,1.9127325E1,2.6528324E1,3.278803E1,3.3485236E0,1.8260497E0,7.29624E0,2.6072497E0,8.987498E0,1.237648E1,1.2837576E1,3.704805E0,1.0990212E0,1.2102013E0,1.1061063E0,9.961945E0,1.7930673E0],"tree_param":{"num_deleted":"0","num_feature":"8","num_nodes":"77","size_leaf_vector":"1"}},{"base_weights":[-1.2750763E-2,-1.5518996E-1,1.1765608E-1,-8.06107E-2,-1.0161717E0,8.429107E-2,8.5938156E-1,4.8456922E-1,-1.5749063E-1,-3.493558E-1,-3.3390692E-1,1.3936977E-1,-4.6538135E-1,4.644018E-2,2.806329E-1,1.1481387E-1,6.2951976E-1,-2.9567426E-1,-7.4035963E-3,9.842636E-2,-2.1752755E-1,6.810712E-2,8.60779E-1,-3.540346E-1,3.42641E-1,2.161742E-1,-4.0686166E-1,8.546324E-2,7.4572295E-1,2.8139028E-1,-5.431344E-2,1.3225944E-1,-1.0191084E0,1.1102825E0,-4.3662864E-1,-5.863918E-1,6.64781E-1,-2.2921003E-1,9.430988E-2,-1.0497772E-1,1.7554703E-1,2.572867E-1,1.4168647E-1,-2.8328988E-1,4.5788097E-3,1.2492262E-2,1.8405664E-1,-3.4682885E-1,5.355197E-2,-1.8311518E-1,3.768426E-1,-2.9363725E-1,1.6347401E-1,-5.1564824E-2,-2.0678082E-1,2.262709E-1,6.096928E-3],"categories":[],"categories_nodes":[],"categories_segments":[],"categories_sizes":[],"default_left":[0,0,0,0,0,0,0,0,0,0,0,0,0,0,0,0,0,0,0,0,0,0,0,0,0,0,0,0,0,0,0,0,0,0,0,0,0,0,0,0,0,0,0,0,0,0,0,0,0,0,0,0,0,0,0,0,0],"id":15,"left_children":[1,3,5,7,9,11,13,15,17,19,-1,21,23,-1,-1,25,27,-1,29,-1,-1,31,33,-1,35,-1,37,39,41,-1,43,45,47,49,51,53,55,-1,-1,-1,-1,-1,-1,-1,-1,-1,-1,-1,-1,-1,-1,-1,-1,-1,-1,-1,-1],"loss_changes":[9.471012E0,1.5563693E1,6.5163198E0,9.866718E0,8.599968E-1,7.8118563E0,4.6355534E-1,1.3868837E0,2.4737402E1,1.2331212E0,0E0,1.193778E1,1.3996688E1,0E0,0E0,3.1025825E0,1.1586428E0,0E0,7.570225E0,0E0,0E0,1.5022868E1,7.247897E0,0E0,3.927858E0,0E0,1.6352925E0,1.1908157E0,7.847023E-2,0E0,1.0075736E1,8.803517E0,2.176444E0,5.2353706E0,2.708566E0,3.3982277E-2,5.177493E-1,0E0,0E0,0E0,0E0,0E0,0E0,0E0,0E0,0E0,0E0,0E0,0E0,0E0,0E0,0E0,0E0,0E0,0E0,0E0,0E0],"parents":[2147483647,0,0,1,1,2,2,3,3,4,4,5,5,6,6,7,7,8,8,9,9,11,11,12,12,15,15,16,16,18,18,21,21,22,22,24,24,26,26,27,27,28,28,30,30,31,31,32,32,33,33,34,34,35,35,36,36],"right_children":[2,4,6,8,10,12,14,16,18,20,-1,22,24,-1,-1,26,28,-1,30,-1,-1,32,34,-1,36,-1,38,40,42,-1,44,46,48,50,52,54,56,-1,-1,-1,-1,-1,-1,-1,-1,-1,-1,-1,-1,-1,-1,-1,-1,-1,-1,-1,-1],"split_conditions":[4.3267474E-1,1.4175645E-1,1.870341E0,-2.3160014E0,-1.1461099E0,-5.3424084E-1,1E0,-3.4075192E-1,5.8206505E-1,1.9191477E-1,-3.3390692E-1,-5.621309E-1,9.844163E-1,4.644018E-2,2.806329E-1,-1.2843643E0,-1.3503487E0,-2.9567426E-1,5.977757E-1,9.842636E-2,-2.1752755E-1,-6.402232E-1,8.7406796E-1,-3.540346E-1,7.077505E-1,2.161742E-1,1E0,1E0,2.678514E-1,2.8139028E-1,1.1162282E0,1.4974163E0,1.6264428E0,-1.3854925E-1,1.9474561E0,-5.0635076E-1,1.1420676E0,-2.2921003E-1,9.430988E-2,-1.0497772E-1,1.7554703E-1,2.572867E-1,1.4168647E-1,-2.8328988E-1,4.5788097E-3,1.2492262E-2,1.8405664E-1,-3.4682885E-1,5.355197E-2,-1.8311518E-1,3.768426E-1,-2.9363725E-1,1.6347401E-1,-5.1564824E-2,-2.0678082E-1,2.262709E-1,6.096928E-3],"split_indices":[3,3,4,3,4,2,6,1,4,3,0,2,3,0,0,1,4,0,4,0,0,2,3,0,4,0,7,7,4,0,4,0,3,1,3,2,1,0,0,0,0,0,0,0,0,0,0,0,0,0,0,0,0,0,0,0,0],"split_type":[0,0,0,0,0,0,0,0,0,0,0,0,0,0,0,0,0,0,0,0,0,0,0,0,0,0,0,0,0,0,0,0,0,0,0,0,0,0,0,0,0,0,0,0,0,0,0,0,0,0,0,0,0,0,0,0,0],"sum_hessian":[5.078952E2,2.4265782E2,2.6523737E2,2.2432054E2,1.8337288E1,2.5488551E2,1.0351866E1,2.6225061E1,1.9809547E2,2.9099061E0,1.5427382E1,2.3234985E2,2.2535652E1,1.3043609E0,9.047504E0,7.8901396E0,1.833492E1,2.9540731E1,1.6855475E2,1.0833904E0,1.8265158E0,2.124572E2,1.9892658E1,1.171377E1,1.0821881E1,3.474402E0,4.4157376E0,3.532311E0,1.480261E1,7.070396E0,1.6148434E2,2.0144885E2,1.1008354E1,1.6805109E1,3.087549E0,2.5751112E0,8.246771E0,2.913528E0,1.5022097E0,2.0477774E0,1.4845337E0,8.987944E0,5.8146663E0,1.0797355E1,1.50687E2,1.7044223E2,3.1006615E1,9.909533E0,1.0988219E0,1.0643615E0,1.57407465E1,1.9907475E0,1.0968016E0,1.043091E0,1.53202E0,7.0920076E0,1.1547629E0],"tree_param":{"num_deleted":"0","num_feature":"8","num_nodes":"57","size_leaf_vector":"1"}},{"base_weights":[-1.3433692E-2,-6.1511204E-2,3.033899E-1,-1.8045315E-1,6.307509E-2,1.3693601E-1,2.6741624E-1,-6.8593794E-1,-9.654027E-2,1.0389011E-2,6.2914824E-1,-6.7394674E-3,6.5533936E-1,4.156224E-1,-8.621241E-1,-3.2579064E-2,-7.835375E-1,3.7402794E-1,-9.6245185E-2,-5.634663E-1,8.3281887E-1,-4.046696E-1,3.7763E-1,2.640845E-1,1.497719E-1,-9.977908E-2,2.2387551E-1,-1.9823892E-1,-9.679821E-1,-1.2455564E-1,6.14693E-1,-9.68784E-1,1.0253329E-1,5.064831E-1,-6.4802635E-1,-4.5113543E-1,9.104479E-2,-3.2111433E-1,6.973644E-2,-2.1230761E-2,2.7350748E-1,2.7478346E-1,-8.190594E-1,5.5207175E-1,-6.827979E-1,-2.7903306E-1,2.1819434E-1,-1.91101E-1,7.154285E-2,-3.017898E-1,-1.0907474E-1,2.0404272E-3,-1.5513042E-1,2.5024217E-1,-1.10455975E-1,-3.1117076E-1,-4.7995746E-2,2.2236195E-1,-1.7064625E-2,-3.2927293E-1,1.6519627E-1,-2.792154E-1,5.195614E-2,-3.1185776E-1,4.0999077E-2,-2.0019242E-1,1.4908263E-1,-5.885402E-1,-2.0060986E-2,1.8661761E-1,-8.1527084E-2,-3.9495838E-1,8.668499E-2],"categories":[],"categories_nodes":[],"categories_segments":[],"categories_sizes":[],"default_left":[0,0,0,0,0,0,0,0,0,0,0,0,0,0,0,0,0,0,0,0,0,0,0,0,0,0,0,0,0,0,0,0,0,0,0,0,0,0,0,0,0,0,0,0,0,0,0,0,0,0,0,0,0,0,0,0,0,0,0,0,0,0,0,0,0,0,0,0,0,0,0,0,0],"id":16,"left_children":[1,3,5,7,9,11,-1,13,15,17,19,21,23,25,27,29,31,33,35,37,39,41,43,-1,45,-1,-1,47,49,51,53,55,-1,57,59,61,63,-1,-1,-1,-1,65,67,69,71,-1,-1,-1,-1,-1,-1,-1,-1,-1,-1,-1,-1,-1,-1,-1,-1,-1,-1,-1,-1,-1,-1,-1,-1,-1,-1,-1,-1],"loss_changes":[7.2818065E0,6.1586776E0,6.043393E0,8.9467125E0,6.0582905E0,3.7491262E0,0E0,6.19777E0,8.033182E0,7.289285E0,4.6710258E0,6.325389E0,1.1100845E0,1.4414508E0,1.6539059E0,1.0127105E1,3.5783224E0,6.0978374E0,9.707775E0,1.5074964E0,1.1462746E0,5.9438124E0,4.26995E0,0E0,3.5252838E0,0E0,0E0,1.0849833E0,1.4837837E-1,7.66833E0,4.87393E0,5.8900166E-1,0E0,5.105548E0,3.4756467E0,1.5253721E1,5.0947556E0,0E0,0E0,0E0,0E0,2.0987644E0,1.0929311E1,1.2429276E0,2.4865217E0,0E0,0E0,0E0,0E0,0E0,0E0,0E0,0E0,0E0,0E0,0E0,0E0,0E0,0E0,0E0,0E0,0E0,0E0,0E0,0E0,0E0,0E0,0E0,0E0,0E0,0E0,0E0,0E0],"parents":[2147483647,0,0,1,1,2,2,3,3,4,4,5,5,7,7,8,8,9,9,10,10,11,11,12,12,13,13,14,14,15,15,16,16,17,17,18,18,19,19,20,20,21,21,22,22,24,24,27,27,28,28,29,29,30,30,31,31,33,33,34,34,35,35,36,36,41,41,42,42,43,43,44,44],"right_children":[2,4,6,8,10,12,-1,14,16,18,20,22,24,26,28,30,32,34,36,38,40,42,44,-1,46,-1,-1,48,50,52,54,56,-1,58,60,62,64,-1,-1,-1,-1,66,68,70,72,-1,-1,-1,-1,-1,-1,-1,-1,-1,-1,-1,-1,-1,-1,-1,-1,-1,-1,-1,-1,-1,-1,-1,-1,-1,-1,-1,-1],"split_conditions":[1.9474561E0,1.4932846E0,1.1319388E0,-5.4295456E-1,1.1348913E0,2.7399576E0,2.6741624E-1,-2.626983E0,1.4116712E0,-9.4735986E-1,1E0,-1.1366669E0,2.975114E-1,-1.2169634E0,-1.5023458E0,1.3474281E0,5.116292E0,4.3075633E-1,2.6585606E-1,1.6818128E0,-1.2523656E0,-9.4187105E-1,5.506437E-1,2.640845E-1,-1.4434578E0,-9.977908E-2,2.2387551E-1,6.449078E-1,1.8270761E0,6.702614E-1,-6.513792E-1,1.3518884E0,1.0253329E-1,-2.1938348E-1,2.5727155E0,1.2169312E-1,1.5247059E0,-3.2111433E-1,6.973644E-2,-2.1230761E-2,2.7350748E-1,1E0,4.9749553E-1,8.72464E-1,5.4749155E-1,-2.7903306E-1,2.1819434E-1,-1.91101E-1,7.154285E-2,-3.017898E-1,-1.0907474E-1,2.0404272E-3,-1.5513042E-1,2.5024217E-1,-1.10455975E-1,-3.1117076E-1,-4.7995746E-2,2.2236195E-1,-1.7064625E-2,-3.2927293E-1,1.6519627E-1,-2.792154E-1,5.195614E-2,-3.1185776E-1,4.0999077E-2,-2.0019242E-1,1.4908263E-1,-5.885402E-1,-2.0060986E-2,1.8661761E-1,-8.1527084E-2,-3.9495838E-1,8.668499E-2],"split_indices":[3,4,4,1,3,3,0,3,1,1,6,2,0,1,0,0,2,2,1,4,0,4,4,0,2,0,0,4,3,1,2,4,0,3,2,3,4,0,0,0,0,6,0,1,0,0,0,0,0,0,0,0,0,0,0,0,0,0,0,0,0,0,0,0,0,0,0,0,0,0,0,0,0],"split_type":[0,0,0,0,0,0,0,0,0,0,0,0,0,0,0,0,0,0,0,0,0,0,0,0,0,0,0,0,0,0,0,0,0,0,0,0,0,0,0,0,0,0,0,0,0,0,0,0,0,0,0,0,0,0,0,0,0,0,0,0,0,0,0,0,0,0,0,0,0,0,0,0,0],"sum_hessian":[4.758318E2,4.138383E2,6.19935E1,2.1148558E2,2.0235269E2,4.927681E1,1.2716689E1,2.9087896E1,1.8239769E2,1.8605443E2,1.6298275E1,3.935623E1,9.920579E0,3.8234887E0,2.5264408E1,1.6782057E2,1.45771055E1,4.1619152E1,1.4443527E2,2.119685E0,1.417859E1,1.9311058E1,2.0045174E1,6.3528347E0,3.5677443E0,1.1699412E0,2.6535473E0,3.8695202E0,2.1394888E1,1.476476E2,2.0172977E1,1.26360855E1,1.9410194E0,3.729082E1,4.3283305E0,4.940688E1,9.502839E1,1.0842824E0,1.0354025E0,1.1465155E0,1.3032074E1,7.4434004E0,1.1867657E1,1.7625195E1,2.419979E0,1.0304881E0,2.5372562E0,1.7014557E0,2.1680644E0,1.95047E1,1.8901871E0,1.1136451E2,3.628309E1,1.6614735E1,3.5582423E0,1.1389689E1,1.2463962E0,2.6100498E1,1.1190325E1,3.2091322E0,1.1191986E0,2.766491E1,2.1741968E1,2.840677E0,9.218771E1,1.0379782E0,6.405422E0,4.072505E0,7.7951517E0,1.6470858E1,1.1543367E0,1.249989E0,1.1699902E0],"tree_param":{"num_deleted":"0","num_feature":"8","num_nodes":"73","size_leaf_vector":"1"}},{"base_weights":[-1.1922007E-2,-3.8672343E-2,4.9500188E-1,7.669692E-2,-1.90499E-1,5.8165157E-1,-6.896774E-2,-1.33379055E-2,3.8052642E-1,-8.7070537E-1,-8.07044E-2,6.1769795E-1,2.9616388E-3,-8.159725E-1,3.9655518E-2,2.3401485E-1,2.6997954E-1,1.5724996E-1,-2.907962E-1,6.1030984E-2,-4.1030866E-1,4.3583488E-1,2.597561E-1,1.8322805E-2,-9.2764264E-1,7.6454633E-1,-2.3690041E-2,4.6481806E-1,-2.360657E-1,-4.110309E-1,3.541271E-1,-4.4588745E-1,-1.2986015E-1,6.8294066E-1,-1.6733946E-1,-2.9831532E-1,-5.462661E-2,3.0274823E-1,-1.372417E-1,-9.588351E-2,3.587007E-2,2.5369242E-1,-6.2612765E-2,-5.344475E-1,1.3663629E-1,7.95953E-2,-3.601587E-1,1.482092E-1,-2.9407376E-1,2.2370885E-1,-1.2123966E-1,2.5516215E-1,9.33054E-2,-4.162868E-1,1.9273105E-1],"categories":[],"categories_nodes":[],"categories_segments":[],"categories_sizes":[],"default_left":[0,0,0,0,0,0,0,0,0,0,0,0,0,0,0,0,0,0,0,0,0,0,0,0,0,0,0,0,0,0,0,0,0,0,0,0,0,0,0,0,0,0,0,0,0,0,0,0,0,0,0,0,0,0,0],"id":17,"left_children":[1,3,5,7,9,11,-1,13,15,17,19,21,-1,23,25,27,-1,-1,-1,29,31,33,-1,-1,35,37,39,41,43,45,47,-1,49,51,53,-1,-1,-1,-1,-1,-1,-1,-1,-1,-1,-1,-1,-1,-1,-1,-1,-1,-1,-1,-1],"loss_changes":[6.1018424E0,7.4941244E0,1.5505438E0,6.6619163E0,1.3720636E1,4.1500664E-1,0E0,8.058009E0,4.0251904E0,4.0242615E0,7.5042486E0,4.892974E-1,0E0,1.2057548E0,8.189498E0,4.966736E0,0E0,0E0,0E0,1.5756033E1,1.437344E1,2.06615E0,0E0,0E0,3.3988094E-1,4.745553E0,7.017034E0,7.964106E0,1.7274591E1,2.3643099E1,1.3579092E1,0E0,9.759844E0,3.268051E-1,5.4458613E0,0E0,0E0,0E0,0E0,0E0,0E0,0E0,0E0,0E0,0E0,0E0,0E0,0E0,0E0,0E0,0E0,0E0,0E0,0E0,0E0],"parents":[2147483647,0,0,1,1,2,2,3,3,4,4,5,5,7,7,8,8,9,9,10,10,11,11,13,13,14,14,15,15,19,19,20,20,21,21,24,24,25,25,26,26,27,27,28,28,29,29,30,30,32,32,33,33,34,34],"right_children":[2,4,6,8,10,12,-1,14,16,18,20,22,-1,24,26,28,-1,-1,-1,30,32,34,-1,-1,36,38,40,42,44,46,48,-1,50,52,54,-1,-1,-1,-1,-1,-1,-1,-1,-1,-1,-1,-1,-1,-1,-1,-1,-1,-1,-1,-1],"split_conditions":[4.0341563E0,-4.617266E-1,1E0,1.5561273E0,5.8206505E-1,1.8973845E0,-6.896774E-2,4.8283306E-1,1.2452396E0,-2.4263496E0,5.4749155E-1,8.974638E-1,2.9616388E-3,-9.3028015E-1,5.3299135E-1,8.13878E-1,2.6997954E-1,1.5724996E-1,-2.907962E-1,-4.0243307E-1,6.028605E-1,9.7527266E-2,2.597561E-1,1.8322805E-2,1.5974083E0,1E0,2.975114E-1,1.6346806E0,1.6975234E0,-1.0821617E0,-9.90035E-2,-4.4588745E-1,6.702614E-1,-2.626983E0,4.680587E-1,-2.9831532E-1,-5.462661E-2,3.0274823E-1,-1.372417E-1,-9.588351E-2,3.587007E-2,2.5369242E-1,-6.2612765E-2,-5.344475E-1,1.3663629E-1,7.95953E-2,-3.601587E-1,1.482092E-1,-2.9407376E-1,2.2370885E-1,-1.2123966E-1,2.5516215E-1,9.33054E-2,-4.162868E-1,1.9273105E-1],"split_indices":[2,2,5,4,4,0,0,3,3,3,0,0,0,2,3,3,0,0,0,0,1,0,0,0,0,6,0,4,4,1,3,0,1,3,1,0,0,0,0,0,0,0,0,0,0,0,0,0,0,0,0,0,0,0,0],"split_type":[0,0,0,0,0,0,0,0,0,0,0,0,0,0,0,0,0,0,0,0,0,0,0,0,0,0,0,0,0,0,0,0,0,0,0,0,0,0,0,0,0,0,0,0,0,0,0,0,0,0,0,0,0,0,0],"sum_hessian":[4.4756393E2,4.2600726E2,2.1556662E1,2.4234796E2,1.836593E2,1.9431532E1,2.125129E0,1.8768634E2,5.4661625E1,2.4561852E1,1.5909746E2,1.8203625E1,1.2279085E0,1.0732657E1,1.7695367E2,4.3766663E1,1.0894962E1,1.3368846E0,2.3224966E1,1.1182546E2,4.7271996E1,1.2095573E1,6.108051E0,1.2633632E0,9.469294E0,1.3331063E1,1.6362262E2,2.9361673E1,1.4404991E1,4.2680958E1,6.91445E1,8.884725E0,3.838727E1,8.486584E0,3.6089897E0,8.384926E0,1.084368E0,1.1252757E1,2.078306E0,5.2970978E1,1.1065164E2,1.8593222E1,1.0768451E1,3.965839E0,1.0439152E1,2.3345358E1,1.9335598E1,6.3152943E1,5.991561E0,8.746637E0,2.9640635E1,4.963157E0,3.5234265E0,1.1549553E0,2.4540343E0],"tree_param":{"num_deleted":"0","num_feature":"8","num_nodes":"55","size_leaf_vector":"1"}},{"base_weights":[-1.0282819E-2,-6.2014874E-2,2.33183E-1,-1.0369979E-1,3.3942318E-1,4.6626106E-2,6.755983E-1,-8.682845E-2,-4.3638232E-1,-1.3061647E-1,6.273265E-1,-7.609205E-2,6.08996E-1,2.199139E-1,8.1370384E-1,-1.0445833E-1,2.9249352E-1,-4.969878E-1,7.4313706E-1,7.797076E-1,-2.6770312E-1,-5.2405626E-1,1.1559237E-1,2.5716153E-1,9.221287E-2,-9.968721E-2,1.8913935E-1,1.6967073E-1,2.823523E-1,4.0232745E-1,-1.4266865E-1,2.4823476E-1,2.6401463E-1,9.132231E-1,3.9630762E-1,2.6446974E-1,-8.79325E-1,3.3248684E-1,-4.6863788E-1,-2.1251284E-1,2.0149668E-1,-1.1532937E-1,1.8842693E-1,-1.18049085E-2,1.6787115E-1,-2.1999513E-1,-2.8188517E-2,1.6677766E-1,-5.0360516E-2,8.83158E-2,2.922406E-1,2.4669221E-1,-3.0363876E-2,-2.6586232E-1,2.3593098E-1,-4.7160196E-1,5.3914823E-3,2.2829853E-2,2.1064709E-1,-2.7651086E-1,1.24948636E-1],"categories":[],"categories_nodes":[],"categories_segments":[],"categories_sizes":[],"default_left":[0,0,0,0,0,0,0,0,0,0,0,0,0,0,0,0,0,0,0,0,0,0,0,0,0,0,0,0,0,0,0,0,0,0,0,0,0,0,0,0,0,0,0,0,0,0,0,0,0,0,0,0,0,0,0,0,0,0,0,0,0],"id":18,"left_children":[1,3,5,7,9,11,13,15,-1,17,19,21,23,25,27,29,-1,-1,31,33,-1,35,37,-1,39,-1,-1,41,-1,43,45,47,-1,49,51,53,55,57,59,-1,-1,-1,-1,-1,-1,-1,-1,-1,-1,-1,-1,-1,-1,-1,-1,-1,-1,-1,-1,-1,-1],"loss_changes":[5.3321867E0,5.87549E0,6.0926747E0,7.0973635E0,4.556574E0,3.7224016E0,1.2014246E0,5.981609E0,0E0,1.908151E1,5.4841537E0,3.891456E0,1.159086E0,1.6767213E0,1.1917839E0,6.0578785E0,0E0,0E0,4.0514994E-1,6.2744045E-1,0E0,4.02848E0,4.2187896E0,0E0,2.4484506E0,0E0,0E0,1.2422282E0,0E0,1.5490439E0,8.2418995E0,5.269961E-1,0E0,2.2468662E-1,1.515704E0,3.6865287E0,5.9780345E0,2.218196E0,4.0315204E0,0E0,0E0,0E0,0E0,0E0,0E0,0E0,0E0,0E0,0E0,0E0,0E0,0E0,0E0,0E0,0E0,0E0,0E0,0E0,0E0,0E0,0E0],"parents":[2147483647,0,0,1,1,2,2,3,3,4,4,5,5,6,6,7,7,9,9,10,10,11,11,12,12,13,13,14,14,15,15,18,18,19,19,21,21,22,22,24,24,27,27,29,29,30,30,31,31,33,33,34,34,35,35,36,36,37,37,38,38],"right_children":[2,4,6,8,10,12,14,16,-1,18,20,22,24,26,28,30,-1,-1,32,34,-1,36,38,-1,40,-1,-1,42,-1,44,46,48,-1,50,52,54,56,58,60,-1,-1,-1,-1,-1,-1,-1,-1,-1,-1,-1,-1,-1,-1,-1,-1,-1,-1,-1,-1,-1,-1],"split_conditions":[1.6866328E0,1.8389195E0,1.0533855E0,1.8074982E0,1.9090155E-1,2.7399576E0,1E0,2.1973608E0,-4.3638232E-1,4.9286473E-1,1.9960263E0,-1.2816954E0,2.975114E-1,1.9474561E0,1.2104923E0,-2.3160014E0,2.9249352E-1,-4.969878E-1,6.3653395E-2,1E0,-2.6770312E-1,-7.0240927E-1,1.89298E-1,2.5716153E-1,-1.4434578E0,-9.968721E-2,1.8913935E-1,2.4089127E0,2.823523E-1,-3.4075192E-1,-1.1122017E0,-4.081528E-1,2.6401463E-1,4.3075633E-1,2.2436966E-1,-8.0240136E-1,9.974559E-1,-2.6631176E-1,-5.6770897E-1,-2.1251284E-1,2.0149668E-1,-1.1532937E-1,1.8842693E-1,-1.18049085E-2,1.6787115E-1,-2.1999513E-1,-2.8188517E-2,1.6677766E-1,-5.0360516E-2,8.83158E-2,2.922406E-1,2.4669221E-1,-3.0363876E-2,-2.6586232E-1,2.3593098E-1,-4.7160196E-1,5.3914823E-3,2.2829853E-2,2.1064709E-1,-2.7651086E-1,1.24948636E-1],"split_indices":[3,4,4,4,2,3,6,0,0,3,4,2,0,3,4,3,0,0,1,6,0,0,4,0,2,0,0,3,0,1,3,1,0,2,2,0,0,4,2,0,0,0,0,0,0,0,0,0,0,0,0,0,0,0,0,0,0,0,0,0,0],"split_type":[0,0,0,0,0,0,0,0,0,0,0,0,0,0,0,0,0,0,0,0,0,0,0,0,0,0,0,0,0,0,0,0,0,0,0,0,0,0,0,0,0,0,0,0,0,0,0,0,0,0,0,0,0,0,0,0,0,0,0,0,0],"sum_hessian":[4.2120972E2,3.4800937E2,7.320037E1,3.1594376E2,3.2065598E1,5.2266228E1,2.093414E1,3.1309778E2,2.8459704E0,1.2387579E1,1.9678017E1,4.361371E1,8.652519E0,5.471868E0,1.5462272E1,3.0887103E2,4.226771E0,4.1840878E0,8.203491E0,1.8327225E1,1.3507926E0,1.2550166E1,3.1063543E1,5.400125E0,3.2523937E0,2.4146729E0,3.0571954E0,2.939874E0,1.2522398E1,2.0987196E1,2.8788382E2,2.3872535E0,5.816238E0,1.2568464E1,5.7587595E0,3.9775324E0,8.572634E0,2.2967716E1,8.095827E0,1.2721752E0,1.9802184E0,1.4041011E0,1.5357727E0,5.7069106E0,1.5280286E1,2.0860582E1,2.6702325E2,1.1792327E0,1.2080209E0,1.6489474E0,1.09195175E1,2.7506862E0,3.0080736E0,1.0234687E0,2.9540637E0,4.4135733E0,4.1590605E0,1.4273848E1,8.69387E0,5.327549E0,2.7682781E0],"tree_param":{"num_deleted":"0","num_feature":"8","num_nodes":"61","size_leaf_vector":"1"}},{"base_weights":[-3.816758E-3,-2.7708154E-2,4.2314377E-1,-3.836503E-2,2.6616445E-1,2.2532919E-1,7.5556606E-1,-5.074875E-3,-5.839967E-1,-4.7819437E-3,2.3574334E-1,7.876112E-2,2.540996E-1,-5.8874536E-2,3.974328E-1,-8.32994E-1,2.1178372E-2,6.1096627E-1,-5.828331E-1,1.812447E-2,-4.123597E-1,-7.320042E-1,5.183728E-1,8.6310565E-2,-9.472493E-1,2.1884637E-1,-4.6363297E-1,3.2459058E-2,2.3850204E-1,-1.0873429E0,1.8696336E-1,-8.676147E-3,1.4807774E-1,-2.6064342E-1,7.788585E-2,-3.6656684E-1,1.4341201E-1,2.3259242E-1,1.0328705E-1,-3.0436933E-1,-7.778789E-2,1.8793748E-1,-4.13596E-1,-3.7948575E-2,-3.9346278E-1],"categories":[],"categories_nodes":[],"categories_segments":[],"categories_sizes":[],"default_left":[0,0,0,0,0,0,0,0,0,0,0,0,0,0,0,0,0,0,0,0,0,0,0,0,0,0,0,0,0,0,0,0,0,0,0,0,0,0,0,0,0,0,0,0,0],"id":19,"left_children":[1,3,5,7,-1,9,11,13,15,17,-1,-1,-1,19,21,23,25,27,29,31,33,35,37,-1,39,-1,41,-1,-1,43,-1,-1,-1,-1,-1,-1,-1,-1,-1,-1,-1,-1,-1,-1,-1],"loss_changes":[4.1502185E0,3.7893047E0,1.2475288E0,6.9297695E0,0E0,1.93087E0,1.2106943E-1,7.8349752E0,3.3235216E0,4.4802585E0,0E0,0E0,0E0,8.691979E0,6.206576E0,2.2659664E0,2.8692188E0,4.7829676E-1,4.625443E0,5.896236E0,1.7743687E1,3.2758095E0,1.4827995E0,0E0,4.0198135E-1,0E0,5.8379726E0,0E0,0E0,8.9803886E-1,0E0,0E0,0E0,0E0,0E0,0E0,0E0,0E0,0E0,0E0,0E0,0E0,0E0,0E0,0E0],"parents":[2147483647,0,0,1,1,2,2,3,3,5,5,6,6,7,7,8,8,9,9,13,13,14,14,15,15,16,16,17,17,18,18,19,19,20,20,21,21,22,22,24,24,26,26,29,29],"right_children":[2,4,6,8,-1,10,12,14,16,18,-1,-1,-1,20,22,24,26,28,30,32,34,36,38,-1,40,-1,42,-1,-1,44,-1,-1,-1,-1,-1,-1,-1,-1,-1,-1,-1,-1,-1,-1,-1],"split_conditions":[2.4089127E0,2.1973608E0,-1.2816954E0,1.4116712E0,2.6616445E-1,9.974559E-1,-4.755537E-1,1.2974321E0,1.6346806E0,-3.02441E-1,2.3574334E-1,7.876112E-2,2.540996E-1,6.702614E-1,-5.604601E-1,-1.6017196E0,1.3974241E0,1E0,9.1198933E-1,6.028605E-1,1.2094685E0,4.0341563E0,-8.968121E-1,8.6310565E-2,2.158121E0,2.1884637E-1,-6.402232E-1,3.2459058E-2,2.3850204E-1,-1.2089527E0,1.8696336E-1,-8.676147E-3,1.4807774E-1,-2.6064342E-1,7.788585E-2,-3.6656684E-1,1.4341201E-1,2.3259242E-1,1.0328705E-1,-3.0436933E-1,-7.778789E-2,1.8793748E-1,-4.13596E-1,-3.7948575E-2,-3.9346278E-1],"split_indices":[3,0,2,1,0,0,1,0,4,0,0,0,0,1,3,4,0,6,4,1,1,2,2,0,3,0,2,0,0,4,0,0,0,0,0,0,0,0,0,0,0,0,0,0,0],"split_type":[0,0,0,0,0,0,0,0,0,0,0,0,0,0,0,0,0,0,0,0,0,0,0,0,0,0,0,0,0,0,0,0,0,0,0,0,0,0,0,0,0,0,0,0,0],"sum_hessian":[4.047075E2,3.841469E2,2.0560574E1,3.80671E2,3.4759257E0,1.3941966E1,6.618608E0,3.5973224E2,2.0938732E1,1.0586888E1,3.3550785E0,1.6410418E0,4.9775662E0,3.1807208E2,4.1660168E1,1.4568231E1,6.370502E0,5.098719E0,5.4881687E0,2.619588E2,5.6113266E1,3.540783E0,3.8119385E1,1.2073764E0,1.3360854E1,2.3835099E0,3.9869921E0,1.7917738E0,3.3069453E0,3.9388852E0,1.5492836E0,2.3922772E2,2.27311E1,3.324095E1,2.2872314E1,2.5134332E0,1.0273498E0,1.4001034E1,2.411835E1,1.1737601E1,1.6232522E0,1.9633527E0,2.0236394E0,1.0411329E0,2.8977525E0],"tree_param":{"num_deleted":"0","num_feature":"8","num_nodes":"45","size_leaf_vector":"1"}},{"base_weights":[1.9466445E-4,1.8933967E-1,-4.3698616E-2,4.187167E-1,-2.832899E-1,-4.3992773E-1,-6.2740776E-3,-4.4947106E-2,6.622137E-1,-8.763454E-1,3.4403542E-1,-5.977381E-2,2.4441144E-1,6.162936E-1,-4.1057026E-1,7.7010137E-1,-2.98777E-1,-3.4948975E-1,-1.4749219E-1,-1.884829E-2,2.6727313E-1,-6.0134774E-1,1.7898686E-2,7.1026015E-1,1.0551756E-1,2.2993363E-1,3.850236E-5,1.7866434E-1,-3.0030555E-1,-2.4478014E-1,8.56477E-1,-2.8105503E-1,1.3310526E-1,2.3416653E-1,-2.990909E-1,4.512374E-1,-1.1911048E0,6.7859906E-1,-4.121594E-2,1.3837951E-1,2.933598E-1,-3.776247E-1,2.5266773E-1,-1.2172322E-1,2.0457472E-1,3.239942E-1,1.5699707E-1,-3.8723883E-1,2.212359E-1,-5.0346315E-1,2.0617436E-1,2.8629985E-1,3.8163103E-2,-3.9918077E-1,-4.0089632E-3,-4.0691373E-1,2.5838423E-1,1.7133947E-1,-5.4166667E-2],"categories":[],"categories_nodes":[],"categories_segments":[],"categories_sizes":[],"default_left":[0,0,0,0,0,0,0,0,0,0,0,0,0,0,0,0,0,0,0,0,0,0,0,0,0,0,0,0,0,0,0,0,0,0,0,0,0,0,0,0,0,0,0,0,0,0,0,0,0,0,0,0,0,0,0,0,0,0,0],"id":20,"left_children":[1,3,5,7,9,-1,11,13,15,17,19,21,23,25,27,29,-1,-1,31,33,-1,35,37,39,41,-1,-1,43,-1,-1,45,-1,-1,-1,-1,47,49,51,53,55,-1,-1,57,-1,-1,-1,-1,-1,-1,-1,-1,-1,-1,-1,-1,-1,-1,-1,-1],"loss_changes":[3.2721505E0,8.166486E0,1.702379E1,5.7180195E0,9.54756E0,0E0,4.2084737E0,4.673647E0,